{"learner":{"attributes":{"best_iteration":"199","best_ntree_limit":"200","scikit_learn":"{\"n_estimators\": 200, \"max_depth\": null, \"max_leaves\": null, \"max_bin\": null, \"grow_policy\": null, \"learning_rate\": null, \"verbosity\": 0, \"booster\": null, \"tree_method\": null, \"gamma\": 10, \"min_child_weight\": 1, \"max_delta_step\": null, \"subsample\": null, \"sampling_method\": null, \"colsample_bytree\": null, \"colsample_bylevel\": null, \"colsample_bynode\": null, \"reg_alpha\": null, \"reg_lambda\": null, \"scale_pos_weight\": null, \"base_score\": null, \"missing\": NaN, \"num_parallel_tree\": null, \"random_state\": null, \"n_jobs\": null, \"monotone_constraints\": null, \"interaction_constraints\": null, \"importance_type\": null, \"gpu_id\": null, \"validate_parameters\": null, \"predictor\": null, \"enable_categorical\": false, \"max_cat_to_onehot\": null, \"eval_metric\": null, \"early_stopping_rounds\": null, \"callbacks\": null, \"kwargs\": {\"eta\": 0.05, \"lambda\": 1}, \"_estimator_type\": \"regressor\"}"},"feature_names":[],"feature_types":[],"gradient_booster":{"model":{"gbtree_model_param":{"num_parallel_tree":"1","num_trees":"200","size_leaf_vector":"0"},"tree_info":[0,0,0,0,0,0,0,0,0,0,0,0,0,0,0,0,0,0,0,0,0,0,0,0,0,0,0,0,0,0,0,0,0,0,0,0,0,0,0,0,0,0,0,0,0,0,0,0,0,0,0,0,0,0,0,0,0,0,0,0,0,0,0,0,0,0,0,0,0,0,0,0,0,0,0,0,0,0,0,0,0,0,0,0,0,0,0,0,0,0,0,0,0,0,0,0,0,0,0,0,0,0,0,0,0,0,0,0,0,0,0,0,0,0,0,0,0,0,0,0,0,0,0,0,0,0,0,0,0,0,0,0,0,0,0,0,0,0,0,0,0,0,0,0,0,0,0,0,0,0,0,0,0,0,0,0,0,0,0,0,0,0,0,0,0,0,0,0,0,0,0,0,0,0,0,0,0,0,0,0,0,0,0,0,0,0,0,0,0,0,0,0,0,0,0,0,0,0,0,0],"trees":[{"base_weights":[5.9892445E0,6.3740115E0,1.473678E0,2.7622776E0,6.576582E0,-4E-1,2.3508682E0,6.9066586E0,4.9271965E0,7.1183887E0,4.860696E0],"categories":[],"categories_nodes":[],"categories_segments":[],"categories_sizes":[],"default_left":[1,1,1,0,1,0,0,1,0,0,0],"id":0,"left_children":[1,3,5,-1,7,-1,-1,9,-1,-1,-1],"loss_changes":[2.4948535E2,8.2066895E1,2.2306782E1,0E0,3.6200195E1,0E0,0E0,1.0884766E1,0E0,0E0,0E0],"parents":[2147483647,0,0,1,1,2,2,4,4,7,7],"right_children":[2,4,6,-1,8,-1,-1,10,-1,-1,-1],"split_conditions":[8.974805E0,9.676304E-1,7.2597165E0,1.3811389E-1,5.3448477E0,-2.0000001E-2,1.17543414E-1,8.457991E0,2.4635983E-1,3.5591945E-1,2.430348E-1],"split_indices":[17,32,0,0,1,0,0,0,0,0,0],"split_type":[0,0,0,0,0,0,0,0,0,0,0],"sum_hessian":[1.48E2,1.36E2,1.2E1,8E0,1.28E2,4E0,8E0,1.04E2,2.4E1,9.2E1,1.2E1],"tree_param":{"num_deleted":"0","num_feature":"39","num_nodes":"11","size_leaf_vector":"0"}},{"base_weights":[5.6970367E0,6.062489E0,1.4074974E0,2.6395097E0,6.254306E0,-3.84E-1,2.246385E0,6.56703E0,4.690691E0,6.766296E0,4.636356E0],"categories":[],"categories_nodes":[],"categories_segments":[],"categories_sizes":[],"default_left":[1,1,1,0,1,0,0,1,0,1,1],"id":1,"left_children":[1,3,5,-1,7,-1,-1,-1,-1,-1,-1],"loss_changes":[2.2504248E2,7.344385E1,2.0399862E1,0E0,3.2274414E1,0E0,0E0,9.024414E0,0E0,0E0,0E0],"parents":[2147483647,0,0,1,1,2,2,4,4,7,7],"right_children":[2,4,6,-1,8,-1,-1,-1,-1,-1,-1],"split_conditions":[8.974805E0,9.676304E-1,7.2597165E0,1.3197549E-1,5.3448477E0,-1.92E-2,1.1231925E-1,3.283515E-1,2.3453455E-1,3.383148E-1,2.318178E-1],"split_indices":[17,32,0,0,1,0,0,0,0,2147483647,2147483647],"split_type":[0,0,0,0,0,0,0,0,0,0,0],"sum_hessian":[1.48E2,1.36E2,1.2E1,8E0,1.28E2,4E0,8E0,1.04E2,2.4E1,9.2E1,1.2E1],"tree_param":{"num_deleted":"2","num_feature":"39","num_nodes":"11","size_leaf_vector":"0"}},{"base_weights":[5.4174733E0,5.7644367E0,1.3442856E0,2.522198E0,5.945954E0,-3.6864E-1,2.146546E0,6.449217E0,4.9926834E0,3.3774464E0,6.564926E0],"categories":[],"categories_nodes":[],"categories_segments":[],"categories_sizes":[],"default_left":[1,1,1,0,1,0,0,1,0,1,1],"id":2,"left_children":[1,3,5,-1,7,-1,-1,-1,-1,-1,-1],"loss_changes":[2.028247E2,6.563037E1,1.865606E1,0E0,2.9688477E1,0E0,0E0,6.6174316E0,0E0,0E0,0E0],"parents":[2147483647,0,0,1,1,2,2,4,4,7,7],"right_children":[2,4,6,-1,8,-1,-1,-1,-1,-1,-1],"split_conditions":[8.974805E0,9.676304E-1,7.2597165E0,1.261099E-1,7.6186266E0,-1.8432E-2,1.073273E-1,3.2246086E-1,2.4963418E-1,1.6887233E-1,3.2824633E-1],"split_indices":[17,32,0,0,17,0,0,0,0,2147483647,2147483647],"split_type":[0,0,0,0,0,0,0,0,0,0,0],"sum_hessian":[1.48E2,1.36E2,1.2E1,8E0,1.28E2,4E0,8E0,8E1,4.8E1,4E0,7.6E1],"tree_param":{"num_deleted":"2","num_feature":"39","num_nodes":"11","size_leaf_vector":"0"}},{"base_weights":[5.151882E0,5.4813113E0,1.2839094E0,2.4101005E0,5.653091E0,-3.538944E-1,2.051144E0,5.9446106E0,4.2025847E0,6.1412754E0,4.0804224E0,4.443931E0,6.3378706E0],"categories":[],"categories_nodes":[],"categories_segments":[],"categories_sizes":[],"default_left":[1,1,1,0,1,0,0,1,0,1,0,1,1],"id":3,"left_children":[1,3,5,-1,7,-1,-1,9,-1,-1,-1,-1,-1],"loss_changes":[1.8282178E2,5.8652832E1,1.706142E1,0E0,2.9564941E1,0E0,0E0,1.3436279E1,0E0,2.86792E0,0E0,0E0,0E0],"parents":[2147483647,0,0,1,1,2,2,4,4,7,7,9,9],"right_children":[2,4,6,-1,8,-1,-1,10,-1,-1,-1,-1,-1],"split_conditions":[8.974805E0,9.676304E-1,7.2597165E0,1.2050503E-1,5.3448477E0,-1.7694721E-2,1.025572E-1,8.457991E0,2.1012925E-1,3.070638E-1,2.0402113E-1,2.2219656E-1,3.1689355E-1],"split_indices":[17,32,0,0,1,0,0,0,0,9,0,2147483647,2147483647],"split_type":[0,0,0,0,0,0,0,0,0,0,0,0,0],"sum_hessian":[1.48E2,1.36E2,1.2E1,8E0,1.28E2,4E0,8E0,1.04E2,2.4E1,9.2E1,1.2E1,1.2E1,8E1],"tree_param":{"num_deleted":"2","num_feature":"39","num_nodes":"13","size_leaf_vector":"0"}},{"base_weights":[4.900507E0,5.2692175E0,1.727624E0,2.302985E0,5.4406323E0,-3.3973864E-1,2.3898695E0,5.65596E0,3.739964E0,2.9513745E0,5.7308836E0,4.1604877E0,5.888779E0,6.15856E0,4.670551E0],"categories":[],"categories_nodes":[],"categories_segments":[],"categories_sizes":[],"default_left":[1,1,1,0,1,0,0,1,0,1,1,1,1,1,1],"id":4,"left_children":[1,3,5,-1,7,-1,-1,-1,-1,-1,-1,-1,-1,-1,-1],"loss_changes":[1.6520825E2,5.509497E1,2.4086655E1,0E0,2.462207E1,0E0,0E0,5.173584E0,0E0,0E0,1.5354004E0,0E0,1.8010254E0,0E0,0E0],"parents":[2147483647,0,0,1,1,2,2,4,4,7,7,10,10,12,12],"right_children":[2,4,6,-1,8,-1,-1,-1,-1,-1,-1,-1,-1,-1,-1],"split_conditions":[8.509651E0,9.676304E-1,5.344975E-2,1.1514925E-1,9.121795E0,-1.6986933E-2,1.1949348E-1,2.8279802E-1,1.869982E-1,1.4756873E-1,2.8654417E-1,2.0802438E-1,2.9443896E-1,3.07928E-1,2.3352754E-1],"split_indices":[17,32,8,0,0,0,0,0,0,2147483647,2147483647,2147483647,2147483647,2147483647,2147483647],"split_type":[0,0,0,0,0,0,0,0,0,0,0,0,0,0,0],"sum_hessian":[1.48E2,1.32E2,1.6E1,8E0,1.24E2,4E0,1.2E1,1.08E2,1.6E1,4E0,1.04E2,1.2E1,9.2E1,7.2E1,2E1],"tree_param":{"num_deleted":"6","num_feature":"39","num_nodes":"15","size_leaf_vector":"0"}},{"base_weights":[4.660095E0,4.9584017E0,1.1579342E0,2.20063E0,5.112367E0,-3.2614908E-1,1.8537655E0,5.5675507E0,4.2555876E0,5.753475E0,3.4408782E0,2.8966858E0,4.4500885E0],"categories":[],"categories_nodes":[],"categories_segments":[],"categories_sizes":[],"default_left":[1,1,1,0,1,0,0,1,1,0,0,1,1],"id":5,"left_children":[1,3,5,-1,7,-1,-1,9,-1,-1,-1,-1,-1],"loss_changes":[1.4992139E2,4.6920166E1,1.4029335E1,0E0,2.6615723E1,0E0,0E0,1.2230469E1,6.0546875E-2,0E0,0E0,0E0,0E0],"parents":[2147483647,0,0,1,1,2,2,4,4,7,7,8,8],"right_children":[2,4,6,-1,8,-1,-1,10,-1,-1,-1,-1,-1],"split_conditions":[8.974805E0,9.676304E-1,7.2597165E0,1.100315E-1,7.6186266E0,-1.6307455E-2,9.268828E-2,4.8283005E0,2.1277939E-1,2.8767377E-1,1.720439E-1,1.448343E-1,2.2250442E-1],"split_indices":[17,32,0,0,17,0,0,3,11,0,0,2147483647,2147483647],"split_type":[0,0,0,0,0,0,0,0,0,0,0,0,0],"sum_hessian":[1.48E2,1.36E2,1.2E1,8E0,1.28E2,4E0,8E0,8E1,4.8E1,7.2E1,8E0,8E0,4E1],"tree_param":{"num_deleted":"2","num_feature":"39","num_nodes":"13","size_leaf_vector":"0"}},{"base_weights":[4.432855E0,4.767061E0,1.557426E0,3.075074E0,5.039315E0,-3.1310314E-1,2.1570582E0,3.5116258E0,2.1028242E0,5.2664475E0,3.4468951E0,1.2247232E0,2.435349E0,3.3979862E0,5.3962193E0,4.2523236E0,5.6661553E0],"categories":[],"categories_nodes":[],"categories_segments":[],"categories_sizes":[],"default_left":[1,1,1,1,1,0,1,1,1,1,0,1,1,1,1,1,1],"id":6,"left_children":[1,3,5,-1,9,-1,-1,-1,-1,-1,-1,-1,-1,-1,-1,-1,-1],"loss_changes":[1.357627E2,4.5770264E1,1.9743088E1,1.5288544E0,2.2718018E1,0E0,3.9035797E-1,0E0,0E0,5.1835938E0,0E0,0E0,0E0,0E0,3.386963E0,0E0,0E0],"parents":[2147483647,0,0,1,1,2,2,3,3,4,4,6,6,9,9,14,14],"right_children":[2,4,6,-1,10,-1,-1,-1,-1,-1,-1,-1,-1,-1,-1,-1,-1],"split_conditions":[8.509651E0,1.9477338E0,5.344975E-2,1.537537E-1,6.2803116E0,-1.5655158E-2,1.0785291E-1,1.7558129E-1,1.05141215E-1,2.6332238E-1,1.7234476E-1,6.123616E-2,1.21767454E-1,1.6989931E-1,2.6981097E-1,2.1261619E-1,2.8330776E-1],"split_indices":[17,32,8,4,1,0,11,2147483647,2147483647,9,0,2147483647,2147483647,2147483647,2147483647,2147483647,2147483647],"split_type":[0,0,0,0,0,0,0,0,0,0,0,0,0,0,0,0,0],"sum_hessian":[1.48E2,1.32E2,1.6E1,2E1,1.12E2,4E0,1.2E1,1.2E1,8E0,9.6E1,1.6E1,4E0,8E0,8E0,8.8E1,2E1,6.8E1],"tree_param":{"num_deleted":"8","num_feature":"39","num_nodes":"17","size_leaf_vector":"0"}},{"base_weights":[4.215787E0,4.4859533E0,1.0443588E0,1.9661542E0,4.6269784E0,-3.00579E-1,1.6755066E0,4.877095E0,3.3914087E0,4.4530573E0,5.8348126E0,5.354176E0,4.0429425E0],"categories":[],"categories_nodes":[],"categories_segments":[],"categories_sizes":[],"default_left":[1,1,1,0,1,0,0,1,0,1,0,1,1],"id":7,"left_children":[1,3,5,-1,7,-1,-1,9,-1,-1,-1,-1,-1],"loss_changes":[1.22980225E2,3.958618E1,1.1538732E1,0E0,2.332544E1,0E0,0E0,1.6658691E1,0E0,6.8095703E0,0E0,0E0,0E0],"parents":[2147483647,0,0,1,1,2,2,4,4,7,7,9,9],"right_children":[2,4,6,-1,8,-1,-1,10,-1,-1,-1,-1,-1],"split_conditions":[8.974805E0,9.676304E-1,7.2597165E0,9.8307714E-2,5.3448477E0,-1.5028951E-2,8.3775334E-2,7.0592246E0,1.6957043E-1,2.2265287E-1,2.9174063E-1,2.677088E-1,2.0214713E-1],"split_indices":[17,32,0,0,1,0,0,4,0,33,0,2147483647,2147483647],"split_type":[0,0,0,0,0,0,0,0,0,0,0,0,0],"sum_hessian":[1.48E2,1.36E2,1.2E1,8E0,1.28E2,4E0,8E0,1.04E2,2.4E1,7.6E1,2.8E1,2E1,5.6E1],"tree_param":{"num_deleted":"2","num_feature":"39","num_nodes":"13","size_leaf_vector":"0"}},{"base_weights":[4.0107093E0,4.514263E0,2.3644311E0,4.5922966E0,1.9102757E0,8.6706704E-1,3.0484831E0,4.800639E0,3.1824045E0,1.4127389E0,-2.8855583E-1,2.1186259E0,3.361438E0,3.3006868E0,4.9821053E0,3.7619715E0,5.2245693E0],"categories":[],"categories_nodes":[],"categories_segments":[],"categories_sizes":[],"default_left":[1,1,1,1,0,1,1,1,0,1,1,1,1,1,1,1,1],"id":8,"left_children":[1,3,5,7,-1,-1,-1,-1,-1,-1,-1,-1,-1,-1,-1,-1,-1],"loss_changes":[1.128457E2,1.4188965E1,3.5254944E1,1.6740234E1,0E0,8.605337E0,1.5344238E-1,8.869385E0,0E0,0E0,0E0,0E0,0E0,0E0,4.3082275E0,0E0,0E0],"parents":[2147483647,0,0,1,1,2,2,3,3,5,5,6,6,7,7,14,14],"right_children":[2,4,6,8,-1,-1,-1,-1,-1,-1,-1,-1,-1,-1,-1,-1,-1],"split_conditions":[8.175739E0,7.63708E0,6.2692947E0,5.3448477E0,9.551378E-2,4.3353353E-2,1.5242416E-1,2.4003196E-1,1.5912023E-1,7.063695E-2,-1.4427791E-2,1.059313E-1,1.6807191E-1,1.6503434E-1,2.4910526E-1,1.8809858E-1,2.6122847E-1],"split_indices":[34,15,15,1,0,1,13,9,0,2147483647,2147483647,2147483647,2147483647,2147483647,2147483647,2147483647,2147483647],"split_type":[0,0,0,0,0,0,0,0,0,0,0,0,0,0,0,0,0],"sum_hessian":[1.48E2,1.12E2,3.6E1,1.08E2,4E0,1.2E1,2.4E1,9.2E1,1.6E1,8E0,4E0,8E0,1.6E1,1.2E1,8E1,1.6E1,6.4E1],"tree_param":{"num_deleted":"8","num_feature":"39","num_nodes":"17","size_leaf_vector":"0"}},{"base_weights":[3.8148074E0,4.105587E0,1.3154856E0,2.6337233E0,4.3427863E0,-3.2323852E-1,1.8445729E0,1.4368268E0,2.8308268E0,4.5373964E0,2.976908E0,1.036738E0,2.0884175E0,2.7526464E0,4.6668944E0,3.5775754E0,4.9307904E0],"categories":[],"categories_nodes":[],"categories_segments":[],"categories_sizes":[],"default_left":[1,1,1,1,1,0,1,1,1,1,0,1,1,1,1,1,1],"id":9,"left_children":[1,3,5,-1,9,-1,-1,-1,-1,-1,-1,-1,-1,-1,-1,-1,-1],"loss_changes":[1.02885254E2,3.499585E1,1.5335714E1,8.867645E-1,1.6529541E1,0E0,3.9567947E-1,0E0,0E0,9.572632E0,0E0,0E0,0E0,0E0,7.944336E0,0E0,0E0],"parents":[2147483647,0,0,1,1,2,2,3,3,4,4,6,6,9,9,14,14],"right_children":[2,4,6,-1,10,-1,-1,-1,-1,-1,-1,-1,-1,-1,-1,-1,-1],"split_conditions":[8.509651E0,1.9477338E0,5.344975E-2,1.3168617E-1,6.2803116E0,-1.6161926E-2,9.222864E-2,7.1841344E-2,1.4154135E-1,2.2686982E-1,1.488454E-1,5.1836904E-2,1.0442088E-1,1.3763233E-1,2.3334472E-1,1.7887877E-1,2.4653952E-1],"split_indices":[17,32,8,0,1,0,11,2147483647,2147483647,9,0,2147483647,2147483647,2147483647,2147483647,2147483647,2147483647],"split_type":[0,0,0,0,0,0,0,0,0,0,0,0,0,0,0,0,0],"sum_hessian":[1.48E2,1.32E2,1.6E1,2E1,1.12E2,4E0,1.2E1,4E0,1.6E1,9.6E1,1.6E1,4E0,8E0,8E0,8.8E1,2E1,6.8E1],"tree_param":{"num_deleted":"8","num_feature":"39","num_nodes":"17","size_leaf_vector":"0"}},{"base_weights":[3.627983E0,4.05326E0,2.010245E0,4.158579E0,2.3273628E0,-3.10309E-1,2.3410218E0,4.3428516E0,2.9058762E0,1.6680064E0,3.0410404E0,2.8989878E0,4.5209675E0,3.3225346E0,4.7648506E0,4.932727E0,3.172206E0],"categories":[],"categories_nodes":[],"categories_segments":[],"categories_sizes":[],"default_left":[1,1,1,1,0,0,1,1,0,1,1,0,1,1,1,1,1],"id":10,"left_children":[1,3,5,7,-1,-1,-1,11,-1,-1,-1,-1,-1,-1,-1,-1,-1],"loss_changes":[9.436194E1,1.1588501E1,2.6056747E1,1.2541626E1,0E0,0E0,8.590103E0,1.0811035E1,0E0,0E0,0E0,0E0,7.8431396E0,0E0,1.7312012E0,0E0,0E0],"parents":[2147483647,0,0,1,1,2,2,3,3,6,6,7,7,12,12,14,14],"right_children":[2,4,6,8,-1,-1,-1,12,-1,-1,-1,-1,-1,-1,-1,-1,-1],"split_conditions":[8.521371E0,7.63708E0,3.7814774E-2,5.3448477E0,1.1636814E-1,-1.5515449E-2,1.1705109E-1,7.0384674E0,1.4529382E-1,8.3400324E-2,1.5205203E-1,1.4494939E-1,2.2604838E-1,1.6612673E-1,2.3824254E-1,2.4663635E-1,1.586103E-1],"split_indices":[34,15,14,1,0,0,13,9,0,2147483647,2147483647,0,5,2147483647,2147483647,2147483647,2147483647],"split_type":[0,0,0,0,0,0,0,0,0,0,0,0,0,0,0,0,0],"sum_hessian":[1.48E2,1.16E2,3.2E1,1.08E2,8E0,4E0,2.8E1,9.2E1,1.6E1,1.6E1,1.2E1,1.2E1,8E1,1.6E1,6.4E1,5.6E1,8E0],"tree_param":{"num_deleted":"6","num_feature":"39","num_nodes":"17","size_leaf_vector":"0"}},{"base_weights":[3.4515114E0,3.6774647E0,8.048097E-1,1.5962545E0,3.794158E0,-2.9789662E-1,1.328001E0,4.165147E0,3.1034586E0,3.65847E0,4.947517E0,1.986513E0,3.2729475E0,1.9513611E0,3.758002E0],"categories":[],"categories_nodes":[],"categories_segments":[],"categories_sizes":[],"default_left":[1,1,1,0,1,1,1,1,1,1,0,1,1,1,1],"id":11,"left_children":[1,3,-1,-1,7,-1,-1,9,-1,-1,-1,-1,-1,-1,-1],"loss_changes":[8.614697E1,2.721582E1,7.89565E0,0E0,2.0128784E1,0E0,0E0,1.4008789E1,2.7744446E0,1.6721802E0,0E0,0E0,0E0,0E0,0E0],"parents":[2147483647,0,0,1,1,2,2,4,4,7,7,8,8,9,9],"right_children":[2,4,-1,-1,8,-1,-1,10,-1,-1,-1,-1,-1,-1,-1],"split_conditions":[8.974805E0,9.676304E-1,4.0240485E-2,7.981273E-2,7.6186266E0,-1.4894831E-2,6.640005E-2,6.66212E0,1.5517293E-1,1.829235E-1,2.4737585E-1,9.932565E-2,1.6364738E-1,9.756806E-2,1.8790011E-1],"split_indices":[17,32,0,0,17,2147483647,2147483647,4,17,0,0,2147483647,2147483647,2147483647,2147483647],"split_type":[0,0,0,0,0,0,0,0,0,0,0,0,0,0,0],"sum_hessian":[1.48E2,1.36E2,1.2E1,8E0,1.28E2,4E0,8E0,8E1,4.8E1,5.2E1,2.8E1,8E0,4E1,4E0,4.8E1],"tree_param":{"num_deleted":"6","num_feature":"39","num_nodes":"15","size_leaf_vector":"0"}},{"base_weights":[3.283671E0,3.5376308E0,1.1036506E0,2.6957457E0,3.8707454E0,-3.3008903E-1,1.5701926E0,2.1447625E0,3.3474414E0,4.9498124E0,3.507305E0,8.371218E-1,1.8029884E0,2.2737682E0,1.1739867E0,3.2181404E0,4.5943613E0,1.9934379E0,3.365389E0],"categories":[],"categories_nodes":[],"categories_segments":[],"categories_sizes":[],"default_left":[1,1,1,1,1,0,1,1,1,0,1,1,1,1,1,1,1,1,1],"id":12,"left_children":[1,3,5,-1,9,-1,-1,-1,-1,-1,-1,-1,-1,-1,-1,-1,-1,-1,-1],"loss_changes":[7.858777E1,2.6864624E1,1.1889599E1,7.5425415E0,1.9111938E1,0E0,7.092018E-1,4.6151733E-1,0E0,0E0,8.161377E0,0E0,0E0,0E0,0E0,4.291809E0,0E0,0E0,0E0],"parents":[2147483647,0,0,1,1,2,2,3,3,4,4,6,6,7,7,10,10,15,15],"right_children":[2,4,6,-1,10,-1,-1,-1,-1,-1,-1,-1,-1,-1,-1,-1,-1,-1,-1],"split_conditions":[8.509651E0,3.0779618E-1,5.344975E-2,1.3478729E-1,3.3817205E0,-1.6504452E-2,7.850963E-2,1.0723813E-1,1.6737208E-1,2.4749063E-1,1.7536525E-1,4.185609E-2,9.0149425E-2,1.1368841E-1,5.8699336E-2,1.6090702E-1,2.2971807E-1,9.967189E-2,1.6826946E-1],"split_indices":[17,8,8,31,16,0,11,2147483647,2147483647,0,15,2147483647,2147483647,2147483647,2147483647,2147483647,2147483647,2147483647,2147483647],"split_type":[0,0,0,0,0,0,0,0,0,0,0,0,0,0,0,0,0,0,0],"sum_hessian":[1.48E2,1.32E2,1.6E1,4E1,9.2E1,4E0,1.2E1,2.4E1,1.6E1,2E1,7.2E1,4E0,8E0,2E1,4E0,6E1,1.2E1,8E0,5.2E1],"tree_param":{"num_deleted":"10","num_feature":"39","num_nodes":"19","size_leaf_vector":"0"}},{"base_weights":[3.123646E0,3.4953353E0,1.7111821E0,3.5877814E0,1.9873419E0,5.859945E-1,2.326242E0,3.7527437E0,2.4742944E0,1.022484E0,-3.1688547E-1,1.7713445E0,2.869289E0,2.4515376E0,3.915249E0,2.7886474E0,4.149664E0,4.3064685E0,2.6954968E0],"categories":[],"categories_nodes":[],"categories_segments":[],"categories_sizes":[],"default_left":[1,1,1,1,0,1,1,1,0,1,1,1,1,0,1,1,1,1,1],"id":13,"left_children":[1,3,5,7,-1,-1,-1,13,-1,-1,-1,-1,-1,-1,-1,-1,-1,-1,-1],"loss_changes":[7.224353E1,9.180664E0,2.147474E1,1.0736084E1,0E0,5.447279E0,1.2455521E0,1.0066772E1,0E0,0E0,0E0,0E0,0E0,0E0,9.81958E0,0E0,3.2131348E0,0E0,0E0],"parents":[2147483647,0,0,1,1,2,2,3,3,5,5,6,6,7,7,14,14,16,16],"right_children":[2,4,6,8,-1,-1,-1,14,-1,-1,-1,-1,-1,-1,-1,-1,-1,-1,-1],"split_conditions":[8.521371E0,7.63708E0,6.2692947E0,5.3448477E0,9.93671E-2,2.9299725E-2,1.163121E-1,7.0384674E0,1.2371472E-1,5.1124196E-2,-1.5844274E-2,8.856723E-2,1.4346445E-1,1.22576885E-1,1.9576246E-1,1.3943237E-1,2.074832E-1,2.1532343E-1,1.3477485E-1],"split_indices":[34,15,15,1,0,1,9,9,0,2147483647,2147483647,2147483647,2147483647,0,5,2147483647,2147483647,2147483647,2147483647],"split_type":[0,0,0,0,0,0,0,0,0,0,0,0,0,0,0,0,0,0,0],"sum_hessian":[1.48E2,1.16E2,3.2E1,1.08E2,8E0,1.2E1,2E1,9.2E1,1.6E1,8E0,4E0,1.2E1,8E0,1.2E1,8E1,1.6E1,6.4E1,5.6E1,8E0],"tree_param":{"num_deleted":"8","num_feature":"39","num_nodes":"19","size_leaf_vector":"0"}},{"base_weights":[2.9720745E0,3.2041178E0,9.818504E-1,2.4393122E0,3.5068371E0,-3.4032527E-1,1.4148525E0,1.9103395E0,3.0737243E0,4.5276666E0,3.1651351E0,7.5087434E-1,1.6265235E0,2.0259478E0,1.0427172E0,2.8816671E0,4.251782E0,1.7280947E0,3.0231857E0],"categories":[],"categories_nodes":[],"categories_segments":[],"categories_sizes":[],"default_left":[1,1,1,1,1,0,1,1,1,0,1,1,1,1,1,1,0,1,1],"id":14,"left_children":[1,3,5,-1,9,-1,-1,-1,-1,-1,15,-1,-1,-1,-1,-1,-1,-1,-1],"loss_changes":[6.566492E1,2.2238037E1,1.0214094E1,7.887192E0,1.810962E1,0E0,6.057682E-1,3.951187E-1,0E0,0E0,1.0233948E1,0E0,0E0,0E0,0E0,4.734009E0,0E0,0E0,0E0],"parents":[2147483647,0,0,1,1,2,2,3,3,4,4,6,6,7,7,10,10,15,15],"right_children":[2,4,6,-1,10,-1,-1,-1,-1,-1,16,-1,-1,-1,-1,-1,-1,-1,-1],"split_conditions":[8.509651E0,3.0779618E-1,5.344975E-2,1.2196561E-1,3.3817205E0,-1.7016264E-2,7.074263E-2,9.551697E-2,1.5368621E-1,2.2638333E-1,6.3508368E0,3.7543718E-2,8.132618E-2,1.0129739E-1,5.2135862E-2,1.4408337E-1,2.125891E-1,8.640473E-2,1.5115929E-1],"split_indices":[17,8,8,31,16,0,11,2147483647,2147483647,0,15,2147483647,2147483647,2147483647,2147483647,18,0,2147483647,2147483647],"split_type":[0,0,0,0,0,0,0,0,0,0,0,0,0,0,0,0,0,0,0],"sum_hessian":[1.48E2,1.32E2,1.6E1,4E1,9.2E1,4E0,1.2E1,2.4E1,1.6E1,2E1,7.2E1,4E0,8E0,2E1,4E0,6E1,1.2E1,8E0,5.2E1],"tree_param":{"num_deleted":"8","num_feature":"39","num_nodes":"19","size_leaf_vector":"0"}},{"base_weights":[2.8285632E0,3.167538E0,1.5410297E0,3.2227306E0,1.2866749E0,5.048895E-1,2.1090674E0,2.2246296E0,3.3644314E0,9.1079164E-1,-3.2671225E-1,1.5671568E0,2.6574867E0,3.6690302E0,2.6625118E0,3.8273427E0,2.258713E0,2.055437E0,3.1129684E0,3.933519E0,1.936408E0],"categories":[],"categories_nodes":[],"categories_segments":[],"categories_sizes":[],"default_left":[1,1,1,1,0,1,1,0,1,1,1,1,1,1,1,1,1,1,1,1,1],"id":15,"left_children":[1,3,5,7,-1,-1,-1,-1,13,-1,-1,-1,-1,-1,-1,-1,-1,-1,-1,-1,-1],"loss_changes":[6.014856E1,7.9991455E0,1.8357864E1,8.497192E0,0E0,4.6857023E0,2.0763779E0,0E0,1.0970093E1,0E0,0E0,0E0,0E0,5.867798E0,2.6256714E0,3.8270264E0,0E0,0E0,0E0,0E0,0E0],"parents":[2147483647,0,0,1,1,2,2,3,3,5,5,6,6,8,8,13,13,14,14,15,15],"right_children":[2,4,6,8,-1,-1,-1,-1,14,-1,-1,-1,-1,-1,-1,-1,-1,-1,-1,-1,-1],"split_conditions":[8.521371E0,9.105051E0,6.2692947E0,3.34588E-1,6.4333744E-2,2.5244474E-2,1.0545337E-1,1.1123148E-1,7.6186266E0,4.5539584E-2,-1.6335612E-2,7.835784E-2,1.3287434E-1,1.8345152E-1,1.3312559E-1,1.9136713E-1,1.12935655E-1,1.02771856E-1,1.5564843E-1,1.9667594E-1,9.682041E-2],"split_indices":[34,25,15,5,0,1,9,0,17,2147483647,2147483647,2147483647,2147483647,18,0,2147483647,2147483647,2147483647,2147483647,2147483647,2147483647],"split_type":[0,0,0,0,0,0,0,0,0,0,0,0,0,0,0,0,0,0,0,0,0],"sum_hessian":[1.48E2,1.16E2,3.2E1,1.12E2,4E0,1.2E1,2E1,1.6E1,9.6E1,8E0,4E0,1.2E1,8E0,6.4E1,3.2E1,5.6E1,8E0,1.6E1,1.6E1,5.2E1,4E0],"tree_param":{"num_deleted":"10","num_feature":"39","num_nodes":"21","size_leaf_vector":"0"}},{"base_weights":[2.6913152E0,2.9041474E0,8.679022E-1,1.8245604E0,3.0790782E0,-3.4690782E-1,1.2683752E0,2.1165373E0,1.2000872E0,2.8080614E0,3.9207354E0,6.7408466E-1,1.457606E0,2.204212E0,3.1083941E0,2.4049654E0,1.4016515E0,3.4577157E0,2.344904E0,3.7764215E0,2.578842E0,1.323045E0,2.507515E0],"categories":[],"categories_nodes":[],"categories_segments":[],"categories_sizes":[],"default_left":[1,1,1,1,1,1,1,1,1,1,0,1,1,1,1,1,1,1,1,1,1,1,1],"id":16,"left_children":[1,3,-1,-1,9,-1,-1,-1,-1,-1,-1,-1,-1,-1,-1,-1,-1,-1,-1,-1,-1,-1,-1],"loss_changes":[5.5303467E1,1.9499512E1,8.7104845E0,1.2889328E0,1.4765991E1,0E0,4.7940254E-1,0E0,0E0,9.2890625E0,0E0,0E0,0E0,1.9459229E0,7.094055E0,0E0,0E0,6.25E-1,1.719284E-1,0E0,0E0,0E0,0E0],"parents":[2147483647,0,0,1,1,2,2,3,3,4,4,6,6,9,9,13,13,14,14,17,17,18,18],"right_children":[2,4,-1,-1,10,-1,-1,-1,-1,-1,-1,-1,-1,-1,-1,-1,-1,-1,-1,-1,-1,-1,-1],"split_conditions":[8.509651E0,1.9477338E0,4.3395113E-2,9.122802E-2,7.417892E0,-1.7345391E-2,6.341876E-2,1.0582687E-1,6.000436E-2,1.4040308E-1,1.9603677E-1,3.3704232E-2,7.28803E-2,1.102106E-1,1.554197E-1,1.2024827E-1,7.0082575E-2,1.7288579E-1,1.172452E-1,1.8882108E-1,1.289421E-1,6.615225E-2,1.2537575E-1],"split_indices":[17,32,8,4,4,2147483647,2147483647,2147483647,2147483647,5,0,2147483647,2147483647,2147483647,2147483647,2147483647,2147483647,2147483647,2147483647,2147483647,2147483647,2147483647,2147483647],"split_type":[0,0,0,0,0,0,0,0,0,0,0,0,0,0,0,0,0,0,0,0,0,0,0],"sum_hessian":[1.48E2,1.32E2,1.6E1,2E1,1.12E2,4E0,1.2E1,1.2E1,8E0,8.8E1,2.4E1,4E0,8E0,3.2E1,5.6E1,2.4E1,8E0,3.6E1,2E1,2.4E1,1.2E1,4E0,1.6E1],"tree_param":{"num_deleted":"16","num_feature":"39","num_nodes":"23","size_leaf_vector":"0"}},{"base_weights":[2.5599108E0,2.8967857E0,1.4618891E0,2.602781E0,3.5306528E0,4.2681202E-1,1.9416537E0,2.952475E0,1.8739339E0,3.805447E0,2.37504E0,8.285196E-1,-3.8162392E-1,1.3851917E0,2.3487577E0,3.2685966E0,2.0907707E0,1.3931277E0,2.131378E0,3.6313643E0,2.3195357E0],"categories":[],"categories_nodes":[],"categories_segments":[],"categories_sizes":[],"default_left":[1,1,1,1,1,1,1,1,1,1,1,1,1,1,1,1,1,1,1,1,1],"id":17,"left_children":[1,3,5,7,-1,-1,-1,-1,-1,-1,-1,-1,-1,-1,-1,-1,-1,-1,-1,-1,-1],"loss_changes":[5.087982E1,1.1869141E1,1.7545227E1,1.51119995E1,1.4412537E0,4.5379953E0,2.4099655E0,7.603485E0,6.203613E-1,0E0,0E0,0E0,0E0,0E0,0E0,4.315613E0,0E0,0E0,0E0,0E0,0E0],"parents":[2147483647,0,0,1,1,2,2,3,3,4,4,5,5,6,6,7,7,8,8,15,15],"right_children":[2,4,6,8,-1,-1,-1,-1,-1,-1,-1,-1,-1,-1,-1,-1,-1,-1,-1,-1,-1],"split_conditions":[8.175739E0,5.368802E0,6.2692947E0,4.2237625E0,1.7653264E-1,2.1340601E-2,9.708269E-2,1.4762376E-1,9.36967E-2,1.9027236E-1,1.18752E-1,4.142598E-2,-1.9081196E-2,6.9259584E-2,1.1743789E-1,1.6342984E-1,1.0453854E-1,6.965639E-2,1.06568895E-1,1.8156822E-1,1.1597679E-1],"split_indices":[34,23,15,12,27,1,15,17,32,2147483647,2147483647,2147483647,2147483647,2147483647,2147483647,2147483647,2147483647,2147483647,2147483647,2147483647,2147483647],"split_type":[0,0,0,0,0,0,0,0,0,0,0,0,0,0,0,0,0,0,0,0,0],"sum_hessian":[1.48E2,1.12E2,3.6E1,8E1,3.2E1,1.2E1,2.4E1,5.2E1,2.8E1,2.4E1,8E0,8E0,4E0,1.2E1,1.2E1,3.6E1,1.6E1,1.2E1,1.6E1,2.4E1,1.2E1],"tree_param":{"num_deleted":"12","num_feature":"39","num_nodes":"21","size_leaf_vector":"0"}},{"base_weights":[2.4355145E0,2.6314375E0,7.594392E-1,1.6506622E0,2.7904184E0,-3.986964E-1,1.1464576E0,1.927161E0,1.067868E0,2.5368316E0,3.5815704E0,6.2229604E-1,1.3102742E0,1.9633121E0,2.8243635E0,3.782958E0,2.0194278E0,2.162431E0,1.1920581E0,3.170436E0,2.0801232E0,3.4860392E0,2.319627E0,1.1357651E0,2.2355156E0],"categories":[],"categories_nodes":[],"categories_segments":[],"categories_sizes":[],"default_left":[1,1,1,1,1,1,1,1,1,1,1,1,1,1,1,1,1,1,1,1,1,1,1,1,1],"id":18,"left_children":[1,3,-1,-1,9,-1,-1,-1,-1,-1,-1,-1,-1,-1,-1,-1,-1,-1,-1,-1,-1,-1,-1,-1,-1],"loss_changes":[4.693042E1,1.6131897E1,8.076824E0,1.3260307E0,1.35849E1,0E0,3.0088425E-1,0E0,0E0,9.131409E0,2.2549438E-1,0E0,0E0,2.4901123E0,8.08609E0,0E0,0E0,0E0,0E0,1.8488464E0,5.426483E-1,0E0,0E0,0E0,0E0],"parents":[2147483647,0,0,1,1,2,2,3,3,4,4,6,6,9,9,10,10,13,13,14,14,19,19,20,20],"right_children":[2,4,-1,-1,10,-1,-1,-1,-1,-1,-1,-1,-1,-1,-1,-1,-1,-1,-1,-1,-1,-1,-1,-1,-1],"split_conditions":[8.509651E0,1.9477338E0,3.797196E-2,8.253311E-2,7.417892E0,-1.993482E-2,5.732288E-2,9.635805E-2,5.33934E-2,1.2684159E-1,1.7907852E-1,3.1114802E-2,6.5513715E-2,9.816561E-2,1.4121817E-1,1.891479E-1,1.0097139E-1,1.0812155E-1,5.9602905E-2,1.585218E-1,1.04006164E-1,1.7430197E-1,1.15981355E-1,5.6788255E-2,1.1177578E-1],"split_indices":[17,32,8,4,4,2147483647,2147483647,2147483647,2147483647,5,4,2147483647,2147483647,2147483647,2147483647,2147483647,2147483647,2147483647,2147483647,2147483647,2147483647,2147483647,2147483647,2147483647,2147483647],"split_type":[0,0,0,0,0,0,0,0,0,0,0,0,0,0,0,0,0,0,0,0,0,0,0,0,0],"sum_hessian":[1.48E2,1.32E2,1.6E1,2E1,1.12E2,4E0,1.2E1,1.2E1,8E0,8.8E1,2.4E1,4E0,8E0,3.2E1,5.6E1,2E1,4E0,2.4E1,8E0,3.6E1,2E1,2.4E1,1.2E1,4E0,1.6E1],"tree_param":{"num_deleted":"18","num_feature":"39","num_nodes":"25","size_leaf_vector":"0"}},{"base_weights":[2.3166006E0,2.602587E0,1.2324488E0,3.342993E0,2.4154623E0,-4.2907396E-1,1.47642E0,1.6221329E0,3.6524816E0,2.9858537E0,2.088718E0,1.0789069E0,2.239904E0,1.0727535E0,3.212738E0,2.1827784E0,1.2609217E0,5.9191847E-1,1.1586736E0,1.0342919E0,2.2499416E0],"categories":[],"categories_nodes":[],"categories_segments":[],"categories_sizes":[],"default_left":[1,1,1,1,1,0,1,1,1,1,1,1,1,0,0,1,1,1,1,1,1],"id":19,"left_children":[1,3,5,-1,9,-1,-1,-1,-1,13,-1,-1,-1,-1,-1,-1,-1,-1,-1,-1,-1],"loss_changes":[4.2990295E1,8.135254E0,1.4010494E1,5.259506E0,1.1841492E1,0E0,6.384701E0,0E0,0E0,1.0877258E1,2.3087769E0,1.2991524E-1,0E0,0E0,0E0,2.069641E0,0E0,0E0,0E0,0E0,0E0],"parents":[2147483647,0,0,1,1,2,2,3,3,4,4,6,6,9,9,10,10,11,11,15,15],"right_children":[2,4,6,-1,10,-1,-1,-1,-1,14,-1,-1,-1,-1,-1,-1,-1,-1,-1,-1,-1],"split_conditions":[8.521371E0,2.8998494E0,3.7814774E-2,1.6714965E-1,4.3600655E0,-2.14537E-2,7.3821E-2,8.110665E-2,1.8262409E-1,1.8232358E0,1.044359E-1,5.3945344E-2,1.119952E-1,5.363768E-2,1.606369E-1,1.0913892E-1,6.304609E-2,2.9595925E-2,5.7933684E-2,5.1714595E-2,1.12497084E-1],"split_indices":[34,16,14,0,33,0,9,2147483647,2147483647,0,24,2147483647,2147483647,0,0,2147483647,2147483647,2147483647,2147483647,2147483647,2147483647],"split_type":[0,0,0,0,0,0,0,0,0,0,0,0,0,0,0,0,0,0,0,0,0],"sum_hessian":[1.48E2,1.16E2,3.2E1,2E1,9.6E1,4E0,2.8E1,4E0,1.6E1,3.2E1,6.4E1,2E1,8E0,4E0,2.8E1,5.6E1,8E0,4E0,1.6E1,4E0,5.2E1],"tree_param":{"num_deleted":"10","num_feature":"39","num_nodes":"21","size_leaf_vector":"0"}},{"base_weights":[2.204383E0,2.3840048E0,6.6943634E-1,9.152799E-1,2.470681E0,-4.11911E-1,1.0338441E0,2.2507765E0,3.2602675E0,5.328617E-1,1.197296E0,2.7825851E0,2.0086775E0,3.4544575E0,1.7926162E0,1.0298433E0,3.0218303E0,1.5099708E0,2.222126E0,1.6045015E0,8.109476E-1],"categories":[],"categories_nodes":[],"categories_segments":[],"categories_sizes":[],"default_left":[1,1,1,0,1,1,1,1,1,1,1,1,1,1,1,1,1,1,1,1,1],"id":20,"left_children":[1,3,-1,-1,7,-1,-1,-1,-1,-1,-1,-1,-1,-1,-1,-1,-1,-1,-1,-1,-1],"loss_changes":[3.9484863E1,1.4669983E1,7.1247244E0,0E0,1.4366028E1,0E0,4.265318E-1,7.4144287E0,9.3255615E-1,0E0,0E0,9.048706E0,4.4154053E0,0E0,0E0,0E0,0E0,3.5081482E-1,0E0,0E0,0E0],"parents":[2147483647,0,0,1,1,2,2,4,4,6,6,7,7,8,8,11,11,12,12,17,17],"right_children":[2,4,-1,-1,8,-1,-1,-1,-1,-1,-1,-1,-1,-1,-1,-1,-1,-1,-1,-1,-1],"split_conditions":[8.509651E0,9.676304E-1,3.347182E-2,4.5763995E-2,7.417892E0,-2.059555E-2,5.1692206E-2,1.1253883E-1,1.6301338E-1,2.6643086E-2,5.98648E-2,1.3912927E-1,1.0043388E-1,1.7272288E-1,8.963081E-2,5.1492166E-2,1.5109152E-1,7.549854E-2,1.111063E-1,8.022507E-2,4.0547382E-2],"split_indices":[17,32,8,0,4,2147483647,2147483647,33,4,2147483647,2147483647,2147483647,2147483647,2147483647,2147483647,2147483647,2147483647,2147483647,2147483647,2147483647,2147483647],"split_type":[0,0,0,0,0,0,0,0,0,0,0,0,0,0,0,0,0,0,0,0,0],"sum_hessian":[1.48E2,1.32E2,1.6E1,8E0,1.24E2,4E0,1.2E1,1E2,2.4E1,4E0,8E0,2.8E1,7.2E1,2E1,4E0,4E0,2.4E1,2.4E1,4.8E1,2E1,4E0],"tree_param":{"num_deleted":"14","num_feature":"39","num_nodes":"21","size_leaf_vector":"0"}},{"base_weights":[2.0965447E0,2.3812737E0,1.1703042E0,2.1162977E0,2.9595091E0,5.7738066E-1,1.8338977E0,2.4326363E0,1.465186E0,3.2180493E0,1.9125075E0,-4.3868846E-1,8.4226096E-1,2.7196078E0,1.6649553E0,1.0390792E0,1.7048448E0,3.0711858E0,1.8342953E0],"categories":[],"categories_nodes":[],"categories_segments":[],"categories_sizes":[],"default_left":[1,1,1,1,1,1,0,1,1,1,1,1,1,1,1,1,1,1,1],"id":21,"left_children":[1,3,5,7,-1,-1,-1,-1,-1,-1,-1,-1,-1,-1,-1,-1,-1,-1,-1],"loss_changes":[3.6508606E1,1.1050476E1,1.3499172E1,1.3119446E1,2.7782898E0,6.021361E0,0E0,7.148041E0,1.1900177E0,0E0,0E0,0E0,0E0,5.8829956E0,0E0,0E0,0E0,0E0,0E0],"parents":[2147483647,0,0,1,1,2,2,3,3,4,4,5,5,7,7,8,8,13,13],"right_children":[2,4,6,8,-1,-1,-1,-1,-1,-1,-1,-1,-1,-1,-1,-1,-1,-1,-1],"split_conditions":[8.175739E0,5.368802E0,8.776085E0,4.2237625E0,1.4797546E-1,2.8869033E-2,9.1694884E-2,1.21631816E-1,7.32593E-2,1.6090247E-1,9.562538E-2,-2.1934424E-2,4.2113047E-2,1.359804E-1,8.3247766E-2,5.195396E-2,8.524224E-2,1.535593E-1,9.171476E-2],"split_indices":[34,23,15,12,27,8,0,17,32,2147483647,2147483647,2147483647,2147483647,2147483647,2147483647,2147483647,2147483647,2147483647,2147483647],"split_type":[0,0,0,0,0,0,0,0,0,0,0,0,0,0,0,0,0,0,0],"sum_hessian":[1.48E2,1.12E2,3.6E1,8E1,3.2E1,2E1,1.6E1,5.2E1,2.8E1,2.4E1,8E0,4E0,1.6E1,3.6E1,1.6E1,1.2E1,1.6E1,2.4E1,1.2E1],"tree_param":{"num_deleted":"10","num_feature":"39","num_nodes":"19","size_leaf_vector":"0"}},{"base_weights":[1.9948279E0,2.1595297E0,5.8893603E-1,1.6044772E0,2.3810096E0,-4.617837E-1,9.4775623E-1,1.1770129E0,2.1387203E0,3.2300975E0,2.1041346E0,4.8298892E-1,1.1006541E0,1.3344525E0,7.4884766E-1,1.8670882E0,3.0545733E0,9.351718E-1,1.99011E0],"categories":[],"categories_nodes":[],"categories_segments":[],"categories_sizes":[],"default_left":[1,1,1,1,1,1,1,1,1,0,1,1,1,1,1,1,0,1,1],"id":22,"left_children":[1,3,-1,-1,9,-1,-1,-1,-1,-1,15,-1,-1,-1,-1,-1,-1,-1,-1],"loss_changes":[3.3229492E1,1.2529785E1,6.8469896E0,6.8458557E0,1.5066956E1,0E0,3.9220047E-1,6.8595123E-1,0E0,0E0,1.0743591E1,0E0,0E0,0E0,0E0,5.132309E0,0E0,0E0,0E0],"parents":[2147483647,0,0,1,1,2,2,3,3,4,4,6,6,7,7,10,10,15,15],"right_children":[2,4,-1,-1,10,-1,-1,-1,-1,-1,16,-1,-1,-1,-1,-1,-1,-1,-1],"split_conditions":[8.509651E0,3.0779618E-1,2.9446801E-2,8.022386E-2,3.3817205E0,-2.3089185E-2,4.7387812E-2,5.8850646E-2,1.06936015E-1,1.6150488E-1,6.3508368E0,2.4149446E-2,5.5032708E-2,6.6722624E-2,3.7442382E-2,9.335441E-2,1.5272866E-1,4.675859E-2,9.950551E-2],"split_indices":[17,8,8,31,16,2147483647,2147483647,2147483647,2147483647,0,15,2147483647,2147483647,2147483647,2147483647,18,0,2147483647,2147483647],"split_type":[0,0,0,0,0,0,0,0,0,0,0,0,0,0,0,0,0,0,0],"sum_hessian":[1.48E2,1.32E2,1.6E1,4E1,9.2E1,4E0,1.2E1,2.4E1,1.6E1,2E1,7.2E1,4E0,8E0,1.6E1,8E0,6E1,1.2E1,8E0,5.2E1],"tree_param":{"num_deleted":"10","num_feature":"39","num_nodes":"19","size_leaf_vector":"0"}},{"base_weights":[1.8985581E0,2.0996232E0,8.1729096E-1,2.4587526E0,1.6825241E0,1.0885228E0,-4.8534113E-1,1.4471624E0,2.759534E0,1.3546773E0,2.4513814E0,1.2095189E0,4.5943147E-1,8.0652124E-1,1.5822427E0,2.839246E0,1.4902169E0,7.296369E-1,1.4701014E0,2.9884202E0,1.9105029E0,8.8795376E-1,1.6000746E0],"categories":[],"categories_nodes":[],"categories_segments":[],"categories_sizes":[],"default_left":[1,1,1,1,1,1,1,1,1,1,0,1,1,1,1,1,1,1,1,1,1,1,1],"id":23,"left_children":[1,3,-1,7,9,-1,-1,-1,-1,-1,-1,-1,-1,-1,-1,-1,-1,-1,-1,-1,-1,-1,-1],"loss_changes":[3.0677307E1,1.4587158E1,9.361189E0,1.57838745E1,1.2055283E1,1.042778E0,0E0,1.9503403E-1,7.267456E-1,2.1738663E0,0E0,0E0,0E0,0E0,0E0,5.2511597E-1,0E0,0E0,1.3787689E0,0E0,0E0,0E0,0E0],"parents":[2147483647,0,0,1,1,2,2,3,3,4,4,5,5,7,7,8,8,9,9,15,15,18,18],"right_children":[2,4,-1,8,10,-1,-1,-1,-1,-1,-1,-1,-1,-1,-1,-1,-1,-1,-1,-1,-1,-1,-1],"split_conditions":[1.6350056E0,7.341338E0,4.086455E-2,4.2421284E-1,4.6823013E-1,5.442614E-2,-2.4267057E-2,7.2358124E-2,1.3797669E-1,6.773387E-2,1.2256908E-1,6.0475945E-2,2.2971574E-2,4.0326063E-2,7.9112135E-2,1.419623E-1,7.451084E-2,3.6481846E-2,7.350507E-2,1.4942102E-1,9.5525146E-2,4.439769E-2,8.000373E-2],"split_indices":[18,17,1,5,11,2147483647,2147483647,0,4,30,0,2147483647,2147483647,2147483647,2147483647,2147483647,2147483647,2147483647,2147483647,2147483647,2147483647,2147483647,2147483647],"split_type":[0,0,0,0,0,0,0,0,0,0,0,0,0,0,0,0,0,0,0,0,0,0,0],"sum_hessian":[1.48E2,1.24E2,2.4E1,6.4E1,6E1,2E1,4E0,1.6E1,4.8E1,4.4E1,1.6E1,1.6E1,4E0,4E0,1.2E1,4.4E1,4E0,8E0,3.6E1,3.6E1,8E0,8E0,2.8E1],"tree_param":{"num_deleted":"14","num_feature":"39","num_nodes":"23","size_leaf_vector":"0"}},{"base_weights":[1.8065934E0,2.9204205E-1,1.9371231E0,7.096345E-1,-5.180327E-1,2.2565114E0,1.4492708E0,1.3648154E0,2.4550087E0,8.2377213E-1,1.6732758E0,7.486347E-1,1.4968221E0,2.0448453E0,3.0294762E0,5.589974E-1,9.9701667E-1,1.1948951E0,1.9316437E0,1.5425286E0,2.3046272E0,6.7323416E-1,1.303619E0,2.4445136E0,1.2561783E0],"categories":[],"categories_nodes":[],"categories_segments":[],"categories_sizes":[],"default_left":[1,1,1,1,1,1,1,1,1,1,1,1,1,1,1,1,1,1,1,1,1,1,1,1,1],"id":24,"left_children":[1,-1,5,-1,-1,7,-1,-1,-1,-1,-1,-1,-1,-1,-1,-1,-1,-1,-1,-1,-1,-1,-1,-1,-1],"loss_changes":[2.8890686E1,4.765268E0,1.8076294E1,0E0,0E0,1.0986328E1,6.6081467E0,2.6220703E-1,9.120819E0,2.224741E-1,2.759407E0,0E0,0E0,1.7952576E0,0E0,0E0,0E0,8.654785E-2,0E0,0E0,5.9584045E-1,0E0,0E0,0E0,0E0],"parents":[2147483647,0,0,1,1,2,2,5,5,6,6,7,7,8,8,9,9,10,10,13,13,17,17,20,20],"right_children":[2,-1,6,-1,-1,8,-1,-1,-1,-1,-1,-1,-1,-1,-1,-1,-1,-1,-1,-1,-1,-1,-1,-1,-1],"split_conditions":[1.093872E0,1.4602102E-2,7.6186266E0,3.5481725E-2,-2.5901636E-2,4.116471E0,7.246354E-2,6.824077E-2,1.2275044E-1,4.118861E-2,8.366379E-2,3.7431736E-2,7.4841104E-2,1.0224227E-1,1.514738E-1,2.794987E-2,4.9850833E-2,5.9744757E-2,9.658219E-2,7.7126436E-2,1.1523136E-1,3.366171E-2,6.518095E-2,1.2222568E-1,6.2808916E-2],"split_indices":[32,1,17,2147483647,2147483647,30,11,0,8,2147483647,2147483647,2147483647,2147483647,2147483647,2147483647,2147483647,2147483647,2147483647,2147483647,2147483647,2147483647,2147483647,2147483647,2147483647,2147483647],"split_type":[0,0,0,0,0,0,0,0,0,0,0,0,0,0,0,0,0,0,0,0,0,0,0,0,0],"sum_hessian":[1.48E2,1.2E1,1.36E2,8E0,4E0,8E1,5.6E1,1.6E1,6.4E1,1.6E1,4E1,4E0,1.2E1,4E1,2.4E1,8E0,8E0,1.6E1,2.4E1,1.6E1,2.4E1,4E0,1.2E1,2E1,4E0],"tree_param":{"num_deleted":"18","num_feature":"39","num_nodes":"25","size_leaf_vector":"0"}},{"base_weights":[1.71813E0,1.964322E0,9.198101E-1,1.7306314E0,2.4784012E0,-5.2971447E-1,1.111562E0,2.3237004E0,1.4401515E0,2.7222595E0,1.5256394E0,7.3547584E-1,1.6335812E0,2.5184338E0,1.0410808E0,7.2739196E-1,1.5416756E0,5.4242694E-1,9.326047E-1,1.8270193E0,1.2818861E0],"categories":[],"categories_nodes":[],"categories_segments":[],"categories_sizes":[],"default_left":[1,1,1,1,1,0,1,1,1,1,1,1,1,1,1,1,1,1,1,1,1],"id":25,"left_children":[1,3,5,7,-1,-1,-1,-1,-1,-1,-1,-1,-1,-1,-1,-1,-1,-1,-1,-1,-1],"loss_changes":[2.7477661E1,9.286102E0,1.0872929E1,1.0607773E1,3.5139923E0,0E0,5.277237E0,3.6223297E0,3.0032501E0,0E0,0E0,2.9329586E-1,0E0,0E0,0E0,0E0,1.2903137E0,0E0,0E0,0E0,0E0],"parents":[2147483647,0,0,1,1,2,2,3,3,4,4,6,6,7,7,8,8,11,11,16,16],"right_children":[2,4,6,8,-1,-1,-1,-1,-1,-1,-1,-1,-1,-1,-1,-1,-1,-1,-1,-1,-1],"split_conditions":[8.175739E0,5.368802E0,3.7814774E-2,4.0103602E0,1.2392006E-1,-2.6485724E-2,5.55781E-2,1.16185024E-1,7.2007574E-2,1.3611297E-1,7.628197E-2,3.6773793E-2,8.167906E-2,1.259217E-1,5.2054044E-2,3.63696E-2,7.708378E-2,2.7121348E-2,4.6630234E-2,9.1350965E-2,6.4094305E-2],"split_indices":[34,23,14,23,27,0,15,0,18,2147483647,2147483647,2147483647,2147483647,2147483647,2147483647,2147483647,2147483647,2147483647,2147483647,2147483647,2147483647],"split_type":[0,0,0,0,0,0,0,0,0,0,0,0,0,0,0,0,0,0,0,0,0],"sum_hessian":[1.48E2,1.12E2,3.6E1,8E1,3.2E1,4E0,3.2E1,2.4E1,5.6E1,2.4E1,8E0,2E1,1.2E1,2E1,4E0,8E0,4.8E1,1.2E1,8E0,2E1,2.8E1],"tree_param":{"num_deleted":"12","num_feature":"39","num_nodes":"21","size_leaf_vector":"0"}},{"base_weights":[1.6345134E0,1.7558762E0,2.2980396E-1,2.4486668E0,1.6165217E0,-5.0852585E-1,6.1445343E-1,1.0619026E0,2.7124994E0,2.1671774E0,1.3837198E0,3.2430667E-1,7.817095E-1,6.364361E-1,2.356368E0,1.1406873E0,1.6681756E0,2.5575187E0,1.6251981E0,7.574353E-1,1.3035539E0,1.3877534E0,2.0791278E0,5.808743E-1,1.065007E0,8.2464993E-1,1.4238173E0],"categories":[],"categories_nodes":[],"categories_segments":[],"categories_sizes":[],"default_left":[1,1,1,1,1,1,1,1,1,1,1,1,1,1,1,1,1,1,1,1,1,1,1,1,1,1,1],"id":26,"left_children":[1,3,-1,-1,9,-1,-1,-1,-1,-1,-1,-1,-1,-1,-1,-1,-1,-1,-1,-1,-1,-1,-1,-1,-1,-1,-1],"loss_changes":[2.4997925E1,9.268127E0,4.0044417E0,4.8029404E0,1.1999908E1,0E0,1.8324566E-1,0E0,0E0,8.05719E0,3.9733582E0,0E0,0E0,0E0,1.0871887E-1,2.0711746E0,1.3785629E0,0E0,0E0,3.0455303E-1,7.2647095E-1,0E0,0E0,0E0,0E0,0E0,0E0],"parents":[2147483647,0,0,1,1,2,2,3,3,4,4,6,6,9,9,10,10,14,14,15,15,16,16,19,19,20,20],"right_children":[2,4,-1,-1,10,-1,-1,-1,-1,-1,-1,-1,-1,-1,-1,-1,-1,-1,-1,-1,-1,-1,-1,-1,-1,-1,-1],"split_conditions":[8.974805E0,2.8352246E0,1.1490199E-2,1.2243334E-1,4.3600655E0,-2.5426293E-2,3.0722672E-2,5.3095132E-2,1.3562497E-1,1.08358875E-1,6.9185995E-2,1.6215334E-2,3.9085474E-2,3.1821806E-2,1.1781841E-1,5.703437E-2,8.340878E-2,1.2787594E-1,8.125991E-2,3.7871767E-2,6.51777E-2,6.938767E-2,1.03956394E-1,2.9043717E-2,5.325035E-2,4.1232497E-2,7.1190864E-2],"split_indices":[17,16,0,0,33,2147483647,2147483647,2147483647,2147483647,0,33,2147483647,2147483647,2147483647,2147483647,2147483647,2147483647,2147483647,2147483647,2147483647,2147483647,2147483647,2147483647,2147483647,2147483647,2147483647,2147483647],"split_type":[0,0,0,0,0,0,0,0,0,0,0,0,0,0,0,0,0,0,0,0,0,0,0,0,0,0,0],"sum_hessian":[1.48E2,1.36E2,1.2E1,2E1,1.16E2,4E0,8E0,4E0,1.6E1,3.2E1,8.4E1,4E0,4E0,4E0,2.8E1,4.8E1,3.6E1,2E1,8E0,1.6E1,3.2E1,2.4E1,1.2E1,1.2E1,4E0,8E0,2.4E1],"tree_param":{"num_deleted":"20","num_feature":"39","num_nodes":"27","size_leaf_vector":"0"}},{"base_weights":[1.554878E0,2.0134401E-1,1.6719661E0,5.784514E-1,-5.17718E-1,1.9594887E0,1.2340485E0,1.1345484E0,2.1450963E0,6.6529703E-1,1.4397736E0,5.49749E-1,1.2721983E0,2.2761796E0,1.0765593E0,4.0932634E-1,8.4734577E-1,9.9380594E-1,1.6854405E0,2.4634824E0,1.4527322E0,5.0230825E-1,1.1063969E0,2.5559824E0,1.2122879E0],"categories":[],"categories_nodes":[],"categories_segments":[],"categories_sizes":[],"default_left":[1,1,1,1,1,1,1,1,1,1,1,1,1,1,1,1,1,1,1,1,1,1,1,1,1],"id":27,"left_children":[1,-1,5,-1,-1,-1,-1,-1,-1,-1,-1,-1,-1,-1,-1,-1,-1,-1,-1,-1,-1,-1,-1,-1,-1],"loss_changes":[2.3277283E1,3.8246012E0,1.4831757E1,0E0,0E0,9.968628E0,5.7114944E0,6.690693E-1,6.6539307E0,4.4534397E-1,2.8169403E0,0E0,0E0,5.212555E0,0E0,0E0,0E0,3.849964E-1,0E0,2.109497E0,0E0,0E0,0E0,0E0,0E0],"parents":[2147483647,0,0,1,1,2,2,5,5,6,6,7,7,8,8,9,9,10,10,13,13,17,17,19,19],"right_children":[2,-1,6,-1,-1,-1,-1,-1,-1,-1,-1,-1,-1,-1,-1,-1,-1,-1,-1,-1,-1,-1,-1,-1,-1],"split_conditions":[1.093872E0,1.0067201E-2,7.6186266E0,2.892257E-2,-2.58859E-2,9.797444E-2,6.1702427E-2,5.672742E-2,1.0725482E-1,3.3264853E-2,7.198868E-2,2.7487451E-2,6.360992E-2,1.1380898E-1,5.3827967E-2,2.0466318E-2,4.236729E-2,4.96903E-2,8.427203E-2,1.2317412E-1,7.263661E-2,2.5115414E-2,5.5319846E-2,1.2779912E-1,6.0614396E-2],"split_indices":[32,1,17,2147483647,2147483647,5,11,2147483647,2147483647,2147483647,2147483647,2147483647,2147483647,2147483647,2147483647,2147483647,2147483647,2147483647,2147483647,2147483647,2147483647,2147483647,2147483647,2147483647,2147483647],"split_type":[0,0,0,0,0,0,0,0,0,0,0,0,0,0,0,0,0,0,0,0,0,0,0,0,0],"sum_hessian":[1.48E2,1.2E1,1.36E2,8E0,4E0,8E1,5.6E1,1.6E1,6.4E1,1.6E1,4E1,4E0,1.2E1,5.6E1,8E0,8E0,8E0,1.6E1,2.4E1,4.4E1,1.2E1,4E0,1.2E1,4E1,4E0],"tree_param":{"num_deleted":"20","num_feature":"39","num_nodes":"25","size_leaf_vector":"0"}},{"base_weights":[1.4782734E0,1.6478181E0,5.714195E-1,2.3886669E0,1.4839548E0,8.05445E-1,-5.257718E-1,1.6380155E0,9.2543966E-1,9.16799E-1,2.657526E-1,1.2263998E0,2.0096796E0,4.8063225E-1,1.1064883E0,4.6871144E-1,1.3958784E0,2.2654734E0,1.2844723E0,1.4671474E0,7.033432E-1,2.4011674E0,1.1339085E0],"categories":[],"categories_nodes":[],"categories_segments":[],"categories_sizes":[],"default_left":[1,1,1,0,1,1,1,1,1,1,1,1,1,1,1,1,1,1,1,1,1,1,1],"id":28,"left_children":[1,3,-1,-1,-1,-1,-1,-1,-1,-1,-1,-1,-1,-1,-1,-1,-1,-1,-1,-1,-1,-1,-1],"loss_changes":[2.1967499E1,1.1630035E1,6.8427515E0,0E0,7.518875E0,1.0183916E0,0E0,9.926941E0,1.4814796E0,0E0,0E0,4.6106224E0,4.695694E0,0E0,0E0,0E0,5.9684753E-1,1.7301483E0,0E0,0E0,0E0,0E0,0E0],"parents":[2147483647,0,0,1,1,2,2,4,4,5,5,7,7,8,8,11,11,12,12,16,16,17,17],"right_children":[2,4,-1,-1,-1,-1,-1,-1,-1,-1,-1,-1,-1,-1,-1,-1,-1,-1,-1,-1,-1,-1,-1],"split_conditions":[1.6350056E0,5.9315577E0,2.8570974E-2,1.1943334E-1,7.419774E-2,4.027225E-2,-2.628859E-2,8.1900775E-2,4.6271984E-2,4.583995E-2,1.3287631E-2,6.131999E-2,1.0048398E-1,2.4031613E-2,5.5324417E-2,2.3435572E-2,6.9793925E-2,1.1327367E-1,6.422362E-2,7.3357366E-2,3.516716E-2,1.2005837E-1,5.6695428E-2],"split_indices":[18,17,1,0,21,2147483647,2147483647,2147483647,2147483647,2147483647,2147483647,2147483647,2147483647,2147483647,2147483647,2147483647,2147483647,2147483647,2147483647,2147483647,2147483647,2147483647,2147483647],"split_type":[0,0,0,0,0,0,0,0,0,0,0,0,0,0,0,0,0,0,0,0,0,0,0],"sum_hessian":[1.48E2,1.24E2,2.4E1,2E1,1.04E2,2E1,4E0,8E1,2.4E1,1.6E1,4E0,4E1,4E1,8E0,1.6E1,8E0,3.2E1,2.8E1,1.2E1,2.8E1,4E0,2.4E1,4E0],"tree_param":{"num_deleted":"18","num_feature":"39","num_nodes":"23","size_leaf_vector":"0"}},{"base_weights":[1.405851E0,1.6206347E0,7.1189433E-1,1.4068695E0,2.0962205E0,2.524648E-1,1.2375488E0,1.664683E0,8.871805E-1,2.3288665E0,1.2170686E0,-5.4862857E-1,4.7322965E-1,8.4216964E-1,1.4954226E0,1.896641E0,1.0619106E0,5.3679085E-1,1.1029385E0,1.6057426E0,2.5747046E0,3.494931E-1,7.0029867E-1,2.1811726E0,1.2035693E0],"categories":[],"categories_nodes":[],"categories_segments":[],"categories_sizes":[],"default_left":[1,1,1,1,1,1,1,1,1,1,1,1,1,1,1,1,1,1,1,1,1,1,1,1,1],"id":29,"left_children":[1,-1,-1,-1,-1,-1,-1,-1,-1,-1,-1,-1,-1,-1,-1,-1,-1,-1,-1,-1,-1,-1,-1,-1,-1],"loss_changes":[2.105481E1,8.53891E0,8.623108E0,9.375732E0,3.9151306E0,3.9735456E0,4.7388458E-1,5.396286E0,1.6003342E0,3.099823E-1,0E0,0E0,2.328949E-1,0E0,0E0,4.671234E0,0E0,0E0,0E0,0E0,0E0,0E0,0E0,0E0,0E0],"parents":[2147483647,0,0,1,1,2,2,3,3,4,4,5,5,6,6,7,7,8,8,9,9,12,12,15,15],"right_children":[2,-1,-1,-1,-1,-1,-1,-1,-1,-1,-1,-1,-1,-1,-1,-1,-1,-1,-1,-1,-1,-1,-1,-1,-1],"split_conditions":[8.175739E0,8.103173E-2,3.5594717E-2,7.034348E-2,1.0481103E-1,1.262324E-2,6.187744E-2,8.323415E-2,4.4359025E-2,1.1644333E-1,6.085343E-2,-2.7431428E-2,2.3661483E-2,4.2108484E-2,7.477113E-2,9.4832055E-2,5.309553E-2,2.6839543E-2,5.514693E-2,8.028713E-2,1.2873523E-1,1.7474655E-2,3.5014935E-2,1.0905863E-1,6.0178466E-2],"split_indices":[34,23,15,2147483647,2147483647,2147483647,2147483647,2147483647,2147483647,2147483647,2147483647,2147483647,2147483647,2147483647,2147483647,2147483647,2147483647,2147483647,2147483647,2147483647,2147483647,2147483647,2147483647,2147483647,2147483647],"split_type":[0,0,0,0,0,0,0,0,0,0,0,0,0,0,0,0,0,0,0,0,0,0,0,0,0],"sum_hessian":[1.48E2,1.12E2,3.6E1,8E1,3.2E1,2E1,1.6E1,5.2E1,2.8E1,2.4E1,8E0,4E0,1.6E1,8E0,8E0,3.6E1,1.6E1,1.2E1,1.6E1,8E0,1.6E1,1.2E1,4E0,2.4E1,1.2E1],"tree_param":{"num_deleted":"22","num_feature":"39","num_nodes":"25","size_leaf_vector":"0"}},{"base_weights":[1.3363411E0,1.4622277E0,2.728555E-1,1.0331985E0,1.6356467E0,-5.7710433E-1,5.787742E-1,6.708824E-1,1.5052398E0,2.3433435E0,1.4096566E0,2.1442012E-1,7.168849E-1,8.0752283E-1,3.3824137E-1,1.2051352E0,2.260899E0,3.7552705E-1,1.3232737E0,1.1895237E0,1.64331E0],"categories":[],"categories_nodes":[],"categories_segments":[],"categories_sizes":[],"default_left":[1,1,1,1,1,1,1,1,1,0,1,1,1,1,1,1,1,1,1,1,1],"id":30,"left_children":[1,3,-1,-1,9,-1,-1,-1,-1,-1,-1,-1,-1,-1,-1,-1,-1,-1,-1,-1,-1],"loss_changes":[1.954895E1,8.205505E0,4.7543297E0,6.0023117E0,1.1570389E1,0E0,5.004611E-1,8.6316776E-1,0E0,0E0,9.984421E0,0E0,0E0,0E0,0E0,5.4816055E0,0E0,0E0,3.139038E-1,0E0,0E0],"parents":[2147483647,0,0,1,1,2,2,3,3,4,4,6,6,7,7,10,10,15,15,18,18],"right_children":[2,4,-1,-1,10,-1,-1,-1,-1,-1,-1,-1,-1,-1,-1,-1,-1,-1,-1,-1,-1],"split_conditions":[8.509651E0,3.0779618E-1,1.3642775E-2,5.1659923E-2,3.3817205E0,-2.8855218E-2,2.893871E-2,3.354412E-2,7.5261995E-2,1.17167175E-1,7.0482835E-2,1.0721006E-2,3.5844248E-2,4.037614E-2,1.691207E-2,6.025676E-2,1.13044955E-1,1.8776353E-2,6.616368E-2,5.9476186E-2,8.21655E-2],"split_indices":[17,8,8,31,16,2147483647,2147483647,2147483647,2147483647,0,15,2147483647,2147483647,2147483647,2147483647,2147483647,2147483647,2147483647,2147483647,2147483647,2147483647],"split_type":[0,0,0,0,0,0,0,0,0,0,0,0,0,0,0,0,0,0,0,0,0],"sum_hessian":[1.48E2,1.32E2,1.6E1,4E1,9.2E1,4E0,1.2E1,2.4E1,1.6E1,2E1,7.2E1,4E0,8E0,1.6E1,8E0,6E1,1.2E1,8E0,5.2E1,4E1,1.2E1],"tree_param":{"num_deleted":"14","num_feature":"39","num_nodes":"21","size_leaf_vector":"0"}},{"base_weights":[1.2712218E0,6.881327E-2,1.37604E0,4.260739E-1,-5.8801854E-1,1.629814E0,9.912727E-1,8.3433104E-1,1.8127893E0,3.9262912E-1,1.1421859E0,2.907997E-1,9.792023E-1,1.9362588E0,8.293949E-1,2.481415E-1,5.7418096E-1,1.2630253E0,5.1849186E-1,2.1078088E0,1.193489E0,9.286189E-1,1.4735912E0,2.7237663E-1,6.609087E-1,2.197188E0,9.533386E-1],"categories":[],"categories_nodes":[],"categories_segments":[],"categories_sizes":[],"default_left":[1,1,1,1,1,1,1,1,1,1,1,1,1,1,1,1,1,1,1,1,1,1,1,1,1,1,1],"id":31,"left_children":[1,-1,5,-1,-1,7,-1,-1,-1,-1,-1,-1,-1,-1,-1,-1,-1,-1,-1,-1,-1,-1,-1,-1,-1,-1,-1],"loss_changes":[1.8684418E1,3.3011215E0,1.1761627E1,0E0,0E0,1.027739E1,4.701107E0,1.0538626E0,6.286316E0,1.9853783E-1,2.736637E0,0E0,0E0,4.7474213E0,0E0,0E0,0E0,1.2369347E0,1.354425E-1,2.5486755E0,0E0,0E0,0E0,0E0,0E0,0E0,0E0],"parents":[2147483647,0,0,1,1,2,2,5,5,6,6,7,7,8,8,9,9,10,10,13,13,17,17,18,18,19,19],"right_children":[2,-1,6,-1,-1,8,-1,-1,-1,-1,-1,-1,-1,-1,-1,-1,-1,-1,-1,-1,-1,-1,-1,-1,-1,-1,-1],"split_conditions":[1.093872E0,3.4406637E-3,7.6186266E0,2.1303697E-2,-2.9400928E-2,4.2421284E-1,4.9563635E-2,4.1716553E-2,9.0639465E-2,1.9631457E-2,5.7109296E-2,1.4539986E-2,4.8960116E-2,9.681294E-2,4.1469745E-2,1.2407075E-2,2.8709048E-2,6.315126E-2,2.5924593E-2,1.05390444E-1,5.967445E-2,4.6430945E-2,7.367956E-2,1.36188315E-2,3.3045437E-2,1.098594E-1,4.7666933E-2],"split_indices":[32,1,17,2147483647,2147483647,5,11,0,18,2147483647,2147483647,2147483647,2147483647,2147483647,2147483647,2147483647,2147483647,2147483647,2147483647,2147483647,2147483647,2147483647,2147483647,2147483647,2147483647,2147483647,2147483647],"split_type":[0,0,0,0,0,0,0,0,0,0,0,0,0,0,0,0,0,0,0,0,0,0,0,0,0,0,0],"sum_hessian":[1.48E2,1.2E1,1.36E2,8E0,4E0,8E1,5.6E1,1.6E1,6.4E1,1.2E1,4.4E1,4E0,1.2E1,5.6E1,8E0,8E0,4E0,3.6E1,8E0,4.4E1,1.2E1,1.6E1,2E1,4E0,4E0,4E1,4E0],"tree_param":{"num_deleted":"20","num_feature":"39","num_nodes":"27","size_leaf_vector":"0"}},{"base_weights":[1.2089047E0,1.3600793E0,4.04676E-1,2.0212064E0,1.2149007E0,6.224169E-1,-5.907711E-1,1.3603004E0,6.9520944E-1,7.206753E-1,1.6385499E-1,9.74935E-1,1.7124878E0,2.8500175E-1,8.714835E-1,2.5606918E-1,1.1414459E0,2.0946934E0,1.2487352E0,1.2067263E0,5.345303E-1,1.5971633E0,9.114591E-1],"categories":[],"categories_nodes":[],"categories_segments":[],"categories_sizes":[],"default_left":[1,1,1,1,1,1,1,1,1,1,1,1,1,1,1,1,1,1,1,1,1,1,1],"id":32,"left_children":[1,-1,-1,-1,-1,-1,-1,-1,-1,-1,-1,-1,-1,-1,-1,-1,-1,-1,-1,-1,-1,-1,-1],"loss_changes":[1.756488E1,9.542114E0,5.786445E0,0E0,6.9884186E0,8.2812214E-1,0E0,9.323822E0,1.55935E0,0E0,0E0,4.615368E0,4.6514893E0,0E0,0E0,0E0,6.6241837E-1,0E0,1.0120964E0,0E0,0E0,0E0,0E0],"parents":[2147483647,0,0,1,1,2,2,4,4,5,5,7,7,8,8,11,11,12,12,16,16,18,18],"right_children":[2,-1,-1,-1,-1,-1,-1,-1,-1,-1,-1,-1,-1,-1,-1,-1,-1,-1,-1,-1,-1,-1,-1],"split_conditions":[1.6350056E0,6.800397E-2,2.02338E-2,1.0106032E-1,6.0745038E-2,3.1120846E-2,-2.9538555E-2,6.8015024E-2,3.476047E-2,3.6033764E-2,8.19275E-3,4.874675E-2,8.562439E-2,1.4250088E-2,4.3574177E-2,1.280346E-2,5.7072293E-2,1.04734674E-1,6.243676E-2,6.0336318E-2,2.6726514E-2,7.985817E-2,4.5572955E-2],"split_indices":[18,17,1,2147483647,2147483647,2147483647,2147483647,2147483647,2147483647,2147483647,2147483647,2147483647,2147483647,2147483647,2147483647,2147483647,2147483647,2147483647,2147483647,2147483647,2147483647,2147483647,2147483647],"split_type":[0,0,0,0,0,0,0,0,0,0,0,0,0,0,0,0,0,0,0,0,0,0,0],"sum_hessian":[1.48E2,1.24E2,2.4E1,2E1,1.04E2,2E1,4E0,8E1,2.4E1,1.6E1,4E0,4E1,4E1,8E0,1.6E1,8E0,3.2E1,2E1,2E1,2.8E1,4E0,8E0,1.2E1],"tree_param":{"num_deleted":"20","num_feature":"39","num_nodes":"23","size_leaf_vector":"0"}},{"base_weights":[1.1490515E0,1.3378086E0,5.415218E-1,1.1292026E0,1.8093022E0,2.0017526E-1,1.156302E0,1.3707765E0,6.4876735E-1,2.0398011E0,9.6799403E-1,-6.0695815E-1,3.8281772E-1,1.585131E0,8.2360625E-1,2.1185875E-1,8.051202E-1,1.356668E0,2.2814713E0,2.0101415E-1,6.028876E-1,1.8535428E0,9.470212E-1],"categories":[],"categories_nodes":[],"categories_segments":[],"categories_sizes":[],"default_left":[1,1,1,1,1,1,1,1,1,1,1,1,1,1,1,1,1,1,1,1,1,1,1],"id":33,"left_children":[1,-1,-1,-1,-1,-1,-1,-1,-1,-1,-1,-1,-1,-1,-1,-1,-1,-1,-1,-1,-1,-1,-1],"loss_changes":[1.6362198E1,9.071213E0,7.533101E0,8.511597E0,4.4248657E0,3.9177752E0,0E0,4.910759E0,1.8104744E0,1.0321274E0,0E0,0E0,7.1901035E-1,4.581871E0,0E0,0E0,0E0,0E0,0E0,0E0,0E0,0E0,0E0],"parents":[2147483647,0,0,1,1,2,2,3,3,4,4,5,5,7,7,8,8,9,9,12,12,13,13],"right_children":[2,-1,-1,-1,-1,-1,-1,-1,-1,-1,-1,-1,-1,-1,-1,-1,-1,-1,-1,-1,-1,-1,-1],"split_conditions":[8.175739E0,6.689043E-2,2.707609E-2,5.646013E-2,9.046511E-2,1.0008763E-2,5.78151E-2,6.853883E-2,3.2438368E-2,1.0199006E-1,4.83997E-2,-3.0347908E-2,1.9140886E-2,7.925656E-2,4.1180313E-2,1.05929375E-2,4.0256012E-2,6.78334E-2,1.1407357E-1,1.00507075E-2,3.0144379E-2,9.267714E-2,4.735106E-2],"split_indices":[34,23,15,2147483647,2147483647,2147483647,2147483647,2147483647,2147483647,2147483647,2147483647,2147483647,2147483647,2147483647,2147483647,2147483647,2147483647,2147483647,2147483647,2147483647,2147483647,2147483647,2147483647],"split_type":[0,0,0,0,0,0,0,0,0,0,0,0,0,0,0,0,0,0,0,0,0,0,0],"sum_hessian":[1.48E2,1.12E2,3.6E1,8E1,3.2E1,2.4E1,1.2E1,5.2E1,2.8E1,2.4E1,8E0,4E0,2E1,3.6E1,1.6E1,8E0,2E1,8E0,1.6E1,1.2E1,8E0,2.4E1,1.2E1],"tree_param":{"num_deleted":"20","num_feature":"39","num_nodes":"23","size_leaf_vector":"0"}},{"base_weights":[1.0922297E0,-4.9824347E-3,1.1883724E0,3.4203592E-1,-6.28619E-1,1.4253786E0,8.3072543E-1,2.0421334E-1,4.1145134E-1,6.68109E-1,1.6015047E0,2.7381033E-1,9.7315145E-1,1.4951095E-1,8.161768E-1,1.7202694E0,6.713829E-1,1.4080048E-1,4.5846596E-1,5.6306493E-1,1.17999E0,1.4142796E0,2.177477E0,1.2481041E-1,6.8831164E-1,1.441822E0,9.103544E-1,1.5584857E0,7.9247326E-1],"categories":[],"categories_nodes":[],"categories_segments":[],"categories_sizes":[],"default_left":[1,1,1,1,1,1,1,1,1,1,1,1,1,1,1,1,1,1,1,1,1,1,1,1,1,1,1,1,1],"id":34,"left_children":[1,-1,5,-1,-1,-1,-1,-1,-1,-1,-1,-1,-1,-1,-1,-1,-1,-1,-1,-1,-1,-1,-1,-1,-1,-1,-1,-1,-1],"loss_changes":[1.572374E1,3.0283837E0,1.042865E1,2.0792484E-3,0E0,9.733398E0,4.254734E0,0E0,0E0,1.183363E0,6.025299E0,2.5474095E-1,3.1525688E0,0E0,0E0,4.8947906E0,0E0,0E0,0E0,8.472204E-1,7.348099E-1,2.0826645E0,0E0,0E0,0E0,0E0,0E0,0E0,0E0],"parents":[2147483647,0,0,1,1,2,2,3,3,5,5,6,6,9,9,10,10,11,11,12,12,15,15,19,19,20,20,21,21],"right_children":[2,-1,6,-1,-1,-1,-1,-1,-1,-1,-1,-1,-1,-1,-1,-1,-1,-1,-1,-1,-1,-1,-1,-1,-1,-1,-1,-1,-1],"split_conditions":[1.093872E0,-2.4912175E-4,7.6186266E0,1.7101796E-2,-3.1430952E-2,7.126893E-2,4.153627E-2,1.0210667E-2,2.0572567E-2,3.340545E-2,8.0075234E-2,1.3690516E-2,4.8657574E-2,7.4755475E-3,4.0808838E-2,8.601347E-2,3.3569146E-2,7.040024E-3,2.2923298E-2,2.8153246E-2,5.8999505E-2,7.071398E-2,1.08873844E-1,6.2405206E-3,3.4415584E-2,7.20911E-2,4.551772E-2,7.792429E-2,3.9623663E-2],"split_indices":[32,1,17,2147483647,2147483647,5,11,2147483647,2147483647,2147483647,2147483647,2147483647,2147483647,2147483647,2147483647,2147483647,2147483647,2147483647,2147483647,2147483647,2147483647,2147483647,2147483647,2147483647,2147483647,2147483647,2147483647,2147483647,2147483647],"split_type":[0,0,0,0,0,0,0,0,0,0,0,0,0,0,0,0,0,0,0,0,0,0,0,0,0,0,0,0,0],"sum_hessian":[1.48E2,1.2E1,1.36E2,8E0,4E0,8E1,5.6E1,4E0,4E0,1.6E1,6.4E1,1.2E1,4.4E1,4E0,1.2E1,5.6E1,8E0,8E0,4E0,1.6E1,2.8E1,3.6E1,2E1,4E0,1.2E1,1.2E1,1.6E1,2.8E1,8E0],"tree_param":{"num_deleted":"24","num_feature":"39","num_nodes":"29","size_leaf_vector":"0"}},{"base_weights":[1.0383736E0,1.1769154E0,3.0412972E-1,1.8248603E0,1.0361177E0,5.116829E-1,-6.284197E-1,8.698948E-1,1.5332352E0,6.047912E-1,9.277801E-2,7.057219E-1,1.6743591E0,7.81213E-1,1.6392769E0,9.9328744E-1,4.8510918E-1,1.4828701E0,8.556394E-1,2.1656068E-1,7.305572E-1],"categories":[],"categories_nodes":[],"categories_segments":[],"categories_sizes":[],"default_left":[1,1,1,1,1,1,1,1,1,1,1,1,1,1,1,1,1,1,1,1,1],"id":35,"left_children":[1,-1,-1,-1,-1,-1,-1,-1,-1,-1,-1,-1,-1,-1,-1,-1,-1,-1,-1,-1,-1],"loss_changes":[1.4798874E1,9.512878E0,5.160392E0,0E0,7.3426437E0,7.629628E-1,0E0,9.516136E0,7.130165E-1,0E0,0E0,3.8955498E0,0E0,0E0,0E0,6.8551064E-1,2.5442924E0,0E0,0E0,0E0,0E0],"parents":[2147483647,0,0,1,1,2,2,4,4,5,5,7,7,8,8,11,11,15,15,16,16],"right_children":[2,-1,-1,-1,-1,-1,-1,-1,-1,-1,-1,-1,-1,-1,-1,-1,-1,-1,-1,-1,-1],"split_conditions":[1.6350056E0,5.884577E-2,1.5206486E-2,9.124302E-2,5.1805884E-2,2.5584146E-2,-3.1420987E-2,4.3494742E-2,7.666176E-2,3.0239562E-2,4.6389005E-3,3.5286095E-2,8.371796E-2,3.906065E-2,8.1963845E-2,4.9664374E-2,2.425546E-2,7.414351E-2,4.278197E-2,1.0828034E-2,3.652786E-2],"split_indices":[18,17,1,2147483647,2147483647,2147483647,2147483647,2147483647,2147483647,2147483647,2147483647,2147483647,2147483647,2147483647,2147483647,2147483647,2147483647,2147483647,2147483647,2147483647,2147483647],"split_type":[0,0,0,0,0,0,0,0,0,0,0,0,0,0,0,0,0,0,0,0,0],"sum_hessian":[1.48E2,1.24E2,2.4E1,2E1,1.04E2,2E1,4E0,8E1,2.4E1,1.6E1,4E0,6.8E1,1.2E1,4E0,2E1,2.8E1,4E1,4E0,2.4E1,2E1,2E1],"tree_param":{"num_deleted":"18","num_feature":"39","num_nodes":"21","size_leaf_vector":"0"}},{"base_weights":[9.8695177E-1,1.0922307E0,1.05243266E-1,9.499132E-1,1.5698549E0,-6.405848E-1,3.840046E-1,1.2239501E0,6.1174953E-1,1.2309839E0,2.1861255E0,8.061276E-2,5.098884E-1,4.9401665E-1,1.605157E0,2.4656956E-1,7.2352225E-1,1.12641655E-1,7.200442E-1,6.9712335E-1,1.6940968E0,5.0906923E-2,5.494484E-1,4.8166525E-1,8.20347E-1,4.541893E-2,1.5733604E-1,8.396179E-1,1.7830036E0],"categories":[],"categories_nodes":[],"categories_segments":[],"categories_sizes":[],"default_left":[1,1,1,1,1,1,1,1,1,1,1,1,1,1,1,1,1,1,1,1,1,1,1,1,1,1,1,1,1],"id":36,"left_children":[1,3,-1,7,-1,-1,-1,13,-1,-1,-1,-1,-1,-1,-1,-1,-1,-1,-1,-1,-1,-1,-1,-1,-1,-1,-1,-1,-1],"loss_changes":[1.3716019E1,7.549347E0,3.780424E0,8.981529E0,3.3651657E0,0E0,4.5539427E-1,1.5067596E1,1.8216419E0,0E0,0E0,0E0,0E0,1.7291193E0,1.8071365E0,7.4243623E-1,4.7132492E-1,1.9894272E-2,0E0,0E0,1.0099335E0,0E0,0E0,0E0,0E0,0E0,0E0,0E0,0E0],"parents":[2147483647,0,0,1,1,2,2,3,3,4,4,6,6,7,7,8,8,13,13,14,14,15,15,16,16,17,17,20,20],"right_children":[2,4,-1,8,-1,-1,-1,14,-1,-1,-1,-1,-1,-1,-1,-1,-1,-1,-1,-1,-1,-1,-1,-1,-1,-1,-1,-1,-1],"split_conditions":[8.509651E0,5.3750954E0,5.2621635E-3,2.701207E0,7.8492746E-2,-3.202924E-2,1.920023E-2,4.116471E0,3.0587478E-2,6.1549194E-2,1.09306276E-1,4.030638E-3,2.549442E-2,2.4700833E-2,8.0257855E-2,1.23284785E-2,3.617611E-2,5.632083E-3,3.600221E-2,3.4856167E-2,8.470484E-2,2.5453463E-3,2.747242E-2,2.4083262E-2,4.101735E-2,2.2709465E-3,7.866803E-3,4.1980896E-2,8.915018E-2],"split_indices":[17,20,8,26,8,2147483647,2147483647,30,18,2147483647,2147483647,2147483647,2147483647,18,5,2147483647,2147483647,2147483647,2147483647,2147483647,2147483647,2147483647,2147483647,2147483647,2147483647,2147483647,2147483647,2147483647,2147483647],"split_type":[0,0,0,0,0,0,0,0,0,0,0,0,0,0,0,0,0,0,0,0,0,0,0,0,0,0,0,0,0],"sum_hessian":[1.48E2,1.32E2,1.6E1,1.04E2,2.8E1,4E0,1.2E1,5.6E1,4.8E1,2E1,8E0,4E0,8E0,2E1,3.6E1,1.2E1,3.6E1,8E0,1.2E1,4E0,3.2E1,8E0,4E0,1.2E1,2.4E1,4E0,4E0,4E0,2.8E1],"tree_param":{"num_deleted":"20","num_feature":"39","num_nodes":"29","size_leaf_vector":"0"}},{"base_weights":[9.3907595E-1,1.1062952E0,4.029988E-1,9.0610385E-1,1.56415E0,-1.8636979E-1,6.9335055E-1,1.1379334E0,4.5117038E-1,1.7919374E0,7.5761265E-1,-6.447946E-1,8.90184E-2,4.3790504E-1,1.0988197E0,1.3376522E0,6.3631403E-1,2.5384903E-2,6.121656E-1,1.1462866E0,2.0283444E0,1.3757534E-1,2.2657776E-2,7.6403044E-2,5.4325926E-1,1.5876527E0,7.5398576E-1,4.5264328E-1,7.4928325E-1],"categories":[],"categories_nodes":[],"categories_segments":[],"categories_sizes":[],"default_left":[1,1,1,1,1,1,1,1,1,1,1,1,1,1,1,1,1,1,1,1,1,1,1,1,1,1,1,1,1],"id":37,"left_children":[1,-1,-1,-1,-1,-1,-1,-1,-1,-1,-1,-1,-1,-1,-1,-1,-1,-1,-1,-1,-1,-1,-1,-1,-1,-1,-1,-1,-1],"loss_changes":[1.2910873E1,8.94014E0,6.460814E0,8.029427E0,4.705139E0,1.6985805E0,2.108204E0,4.458519E0,1.9723935E0,1.4908447E0,0E0,0E0,2.5883265E-2,6.059513E-1,0E0,4.2018585E0,1.3577461E-2,0E0,0E0,0E0,0E0,0E0,0E0,0E0,0E0,0E0,0E0,0E0,0E0],"parents":[2147483647,0,0,1,1,2,2,3,3,4,4,5,5,6,6,7,7,8,8,9,9,12,12,13,13,15,15,16,16],"right_children":[2,-1,-1,-1,-1,-1,-1,-1,-1,-1,-1,-1,-1,-1,-1,-1,-1,-1,-1,-1,-1,-1,-1,-1,-1,-1,-1,-1,-1],"split_conditions":[8.175739E0,5.531476E-2,2.014994E-2,4.5305192E-2,7.82075E-2,-9.31849E-3,3.466753E-2,5.6896668E-2,2.255852E-2,8.959687E-2,3.7880633E-2,-3.223973E-2,4.45092E-3,2.1895252E-2,5.4940987E-2,6.688261E-2,3.1815704E-2,1.2692452E-3,3.060828E-2,5.7314333E-2,1.0141722E-1,6.878767E-3,1.1328888E-3,3.8201523E-3,2.7162964E-2,7.9382636E-2,3.769929E-2,2.2632165E-2,3.7464164E-2],"split_indices":[34,23,23,2147483647,2147483647,2147483647,2147483647,2147483647,2147483647,2147483647,2147483647,2147483647,2147483647,2147483647,2147483647,2147483647,2147483647,2147483647,2147483647,2147483647,2147483647,2147483647,2147483647,2147483647,2147483647,2147483647,2147483647,2147483647,2147483647],"split_type":[0,0,0,0,0,0,0,0,0,0,0,0,0,0,0,0,0,0,0,0,0,0,0,0,0,0,0,0,0],"sum_hessian":[1.48E2,1.12E2,3.6E1,8E1,3.2E1,1.2E1,2.4E1,5.2E1,2.8E1,2.4E1,8E0,4E0,8E0,1.6E1,8E0,3.6E1,1.6E1,8E0,2E1,8E0,1.6E1,4E0,4E0,4E0,1.2E1,2.4E1,1.2E1,8E0,8E0],"tree_param":{"num_deleted":"26","num_feature":"39","num_nodes":"29","size_leaf_vector":"0"}},{"base_weights":[9.1799116E-1,4.986821E-1,1.1470814E0,2.2002737E-1,1.0758317E0,1.5054003E0,8.224775E-1,-6.6091454E-1,3.468359E-1,1.0477889E0,1.9349082E0,1.4134772E0,6.796526E-1,7.241403E-2,5.0020015E-1,1.4312482E0,4.9935618E-1,7.463495E-1,2.3001821E-1,1.0096582E-1,6.5380097E-3,-2.018102E-2,6.1705124E-1,3.9493257E-1,7.769779E-1,-1.5494347E-2,3.313221E-1,1.2145539E-1,6.0283087E-2],"categories":[],"categories_nodes":[],"categories_segments":[],"categories_sizes":[],"default_left":[1,1,1,1,1,1,1,1,1,1,1,1,1,1,1,1,1,1,1,1,1,1,1,1,1,1,1,1,1],"id":38,"left_children":[1,-1,-1,-1,-1,-1,-1,-1,-1,-1,-1,-1,-1,-1,-1,-1,-1,-1,-1,-1,-1,-1,-1,-1,-1,-1,-1,-1,-1],"loss_changes":[1.3356613E1,8.287038E0,9.578827E0,4.3625345E0,0E0,6.4241714E0,3.3442116E0,0E0,1.3526328E0,4.1222343E0,0E0,0E0,1.1178646E0,2.3791298E-2,0E0,0E0,6.850693E-1,9.13887E-2,1.7923322E-1,1.8043816E-4,0E0,0E0,0E0,0E0,0E0,0E0,0E0,0E0,0E0],"parents":[2147483647,0,0,1,1,2,2,3,3,5,5,6,6,8,8,9,9,12,12,13,13,16,16,17,17,18,18,19,19],"right_children":[2,-1,-1,-1,-1,-1,-1,-1,-1,-1,-1,-1,-1,-1,-1,-1,-1,-1,-1,-1,-1,-1,-1,-1,-1,-1,-1,-1,-1],"split_conditions":[3.0779618E-1,2.4934106E-2,5.735407E-2,1.1001369E-2,5.3791583E-2,7.527002E-2,4.112388E-2,-3.3045728E-2,1.7341796E-2,5.2389443E-2,9.674541E-2,7.067386E-2,3.398263E-2,3.6207016E-3,2.5010008E-2,7.156241E-2,2.496781E-2,3.7317477E-2,1.1500911E-2,5.0482913E-3,3.2690048E-4,-1.0090511E-3,3.0852562E-2,1.974663E-2,3.8848896E-2,-7.7471737E-4,1.6566105E-2,6.0727694E-3,3.0141545E-3],"split_indices":[8,31,3,2147483647,2147483647,2147483647,2147483647,2147483647,2147483647,2147483647,2147483647,2147483647,2147483647,2147483647,2147483647,2147483647,2147483647,2147483647,2147483647,2147483647,2147483647,2147483647,2147483647,2147483647,2147483647,2147483647,2147483647,2147483647,2147483647],"split_type":[0,0,0,0,0,0,0,0,0,0,0,0,0,0,0,0,0,0,0,0,0,0,0,0,0,0,0,0,0],"sum_hessian":[1.44E2,5.2E1,9.2E1,3.6E1,1.6E1,4.2E1,5E1,4E0,3.2E1,2.2E1,2E1,8E0,4.2E1,1.2E1,2E1,1.2E1,1E1,3.6E1,6E0,8E0,4E0,2E0,8E0,4E0,3.2E1,2E0,4E0,4E0,4E0],"tree_param":{"num_deleted":"26","num_feature":"39","num_nodes":"29","size_leaf_vector":"0"}},{"base_weights":[8.850986E-1,1.0210153E0,2.0273149E-1,8.11566E-1,1.3723309E0,4.0345696E-1,-6.8086183E-1,1.4050089E0,6.328759E-1,6.962605E-1,1.8312513E0,4.8652452E-1,4.0335845E-2,4.603387E-1,1.0523641E0,-5.3730328E-2,7.8765535E-1,5.190058E-1,6.771673E-2,-5.8417004E-2,5.517966E-1,1.0150814E-1,-1.117452E-2],"categories":[],"categories_nodes":[],"categories_segments":[],"categories_sizes":[],"default_left":[1,1,1,1,1,1,1,1,1,1,0,1,1,1,1,1,1,1,1,1,1,1,1],"id":39,"left_children":[1,3,-1,-1,9,-1,-1,-1,-1,-1,-1,-1,-1,-1,-1,-1,-1,-1,-1,-1,-1,-1,-1],"loss_changes":[1.3055557E1,7.642624E0,4.7086906E0,7.276062E0,1.2066254E1,6.13811E-1,0E0,0E0,3.9305744E0,1.3446817E0,0E0,0E0,0E0,1.0013838E0,0E0,0E0,0E0,7.70668E-1,1.9795232E-2,0E0,0E0,0E0,0E0],"parents":[2147483647,0,0,1,1,2,2,3,3,4,4,5,5,8,8,9,9,13,13,17,17,18,18],"right_children":[2,4,-1,-1,10,-1,-1,-1,-1,-1,-1,-1,-1,-1,-1,-1,-1,-1,-1,-1,-1,-1,-1],"split_conditions":[1.6350056E0,2.4439959E-1,1.01365745E-2,4.0578302E-2,1.1052914E0,2.0172847E-2,-3.4043092E-2,7.0250444E-2,3.1643797E-2,3.4813028E-2,9.156256E-2,2.4326226E-2,2.0167923E-3,2.3016935E-2,5.2618206E-2,-2.6865164E-3,3.9382767E-2,2.5950288E-2,3.3858367E-3,-2.9208502E-3,2.7589832E-2,5.075407E-3,-5.5872597E-4],"split_indices":[18,11,1,23,5,2147483647,2147483647,2147483647,2147483647,0,0,2147483647,2147483647,2147483647,2147483647,2147483647,2147483647,2147483647,2147483647,2147483647,2147483647,2147483647,2147483647],"split_type":[0,0,0,0,0,0,0,0,0,0,0,0,0,0,0,0,0,0,0,0,0,0,0],"sum_hessian":[1.42E2,1.18E2,2.4E1,7.6E1,4.2E1,2E1,4E0,1.6E1,6E1,1.8E1,2.4E1,1.6E1,4E0,4.4E1,1.6E1,2E0,1.6E1,3.8E1,6E0,2E0,3.6E1,4E0,2E0],"tree_param":{"num_deleted":"16","num_feature":"39","num_nodes":"23","size_leaf_vector":"0"}},{"base_weights":[8.42082E-1,-1.2200712E-1,9.3132687E-1,2.065292E-1,-6.8897104E-1,1.0783354E0,5.287016E-1,6.904545E-2,3.027071E-1,7.248244E-1,1.3222556E0,6.947514E-1,2.9248115E-1,8.125216E-1,-6.9099426E-2,9.400092E-1,1.743351E0,3.2226562E-2,3.700805E-1,5.4305476E-1,1.097597E0,1.3432101E0,6.1466074E-1,-8.5469246E-2,7.020565E-1],"categories":[],"categories_nodes":[],"categories_segments":[],"categories_sizes":[],"default_left":[1,1,1,1,1,1,1,1,1,1,1,1,1,1,1,1,1,1,1,1,1,1,1,1,1],"id":40,"left_children":[1,-1,-1,-1,-1,-1,-1,-1,-1,-1,-1,-1,-1,-1,-1,-1,-1,-1,-1,-1,-1,-1,-1,-1,-1],"loss_changes":[1.2417343E1,2.5637796E0,7.1836853E0,9.810552E-2,0E0,7.233307E0,1.2480993E0,0E0,0E0,2.9107647E0,7.214157E0,0E0,3.313986E-1,2.2462254E0,0E0,3.2409859E0,0E0,0E0,0E0,0E0,0E0,0E0,1.2225852E0,0E0,0E0],"parents":[2147483647,0,0,1,1,2,2,3,3,5,5,6,6,9,9,10,10,12,12,13,13,15,15,22,22],"right_children":[2,-1,-1,-1,-1,-1,-1,-1,-1,-1,-1,-1,-1,-1,-1,-1,-1,-1,-1,-1,-1,-1,-1,-1,-1],"split_conditions":[1.093872E0,-6.100356E-3,4.6566345E-2,1.032646E-2,-3.4448553E-2,5.391677E-2,2.643508E-2,3.4522724E-3,1.5135355E-2,3.6241222E-2,6.611278E-2,3.473757E-2,1.4624058E-2,4.062608E-2,-3.4549714E-3,4.700046E-2,8.716755E-2,1.6113281E-3,1.8504025E-2,2.7152738E-2,5.487985E-2,6.716051E-2,3.0733038E-2,-4.2734626E-3,3.5102826E-2],"split_indices":[32,1,17,2147483647,2147483647,2147483647,2147483647,2147483647,2147483647,2147483647,2147483647,2147483647,2147483647,2147483647,2147483647,2147483647,2147483647,2147483647,2147483647,2147483647,2147483647,2147483647,2147483647,2147483647,2147483647],"split_type":[0,0,0,0,0,0,0,0,0,0,0,0,0,0,0,0,0,0,0,0,0,0,0,0,0],"sum_hessian":[1.42E2,1.2E1,1.3E2,8E0,4E0,9.4E1,3.6E1,4E0,4E0,4E1,5.4E1,2E1,1.6E1,3.6E1,4E0,3E1,2.4E1,4E0,1.2E1,2E1,1.6E1,1.2E1,1.8E1,2E0,1.6E1],"tree_param":{"num_deleted":"22","num_feature":"39","num_nodes":"25","size_leaf_vector":"0"}},{"base_weights":[8.117011E-1,-1.16375975E-1,8.98936E-1,2.1195179E-1,-6.8409073E-1,1.2730418E0,7.516451E-1,7.392578E-2,3.0758744E-1,1.5077721E0,6.238327E-1,1.3541267E0,6.124826E-1,-1.0798327E-1,7.984566E-1,3.1629905E-1,1.6491275E0,4.531686E-1,9.0252566E-1,4.7779363E-1,-1.1651357E-1,1.0628535E0,2.926099E-1,5.439944E-1,2.8264552E-1,5.757511E-1,1.1435981E0,4.5121652E-1,-6.927109E-2],"categories":[],"categories_nodes":[],"categories_segments":[],"categories_sizes":[],"default_left":[1,1,1,1,1,1,1,1,1,1,1,1,1,1,1,1,1,1,1,1,1,1,1,1,1,1,1,1,1],"id":41,"left_children":[1,-1,-1,-1,-1,-1,-1,-1,-1,-1,-1,-1,-1,-1,-1,-1,-1,-1,-1,-1,-1,-1,-1,-1,-1,-1,-1,-1,-1],"loss_changes":[1.1520073E1,2.568149E0,6.1513367E0,9.606323E-2,0E0,4.393017E0,7.135685E0,0E0,0E0,0E0,1.4919386E0,4.6831017E0,3.2414322E0,0E0,0E0,0E0,0E0,7.991781E-1,2.3292332E0,5.051098E-1,0E0,1.6752052E-1,4.330333E-1,0E0,0E0,0E0,0E0,0E0,0E0],"parents":[2147483647,0,0,1,1,2,2,3,3,5,5,6,6,10,10,11,11,12,12,17,17,18,18,19,19,21,21,22,22],"right_children":[2,-1,-1,-1,-1,-1,-1,-1,-1,-1,-1,-1,-1,-1,-1,-1,-1,-1,-1,-1,-1,-1,-1,-1,-1,-1,-1,-1,-1],"split_conditions":[1.093872E0,-5.8187987E-3,4.49468E-2,1.0597589E-2,-3.420454E-2,6.365209E-2,3.7582256E-2,3.696289E-3,1.5379372E-2,7.53886E-2,3.1191636E-2,6.770634E-2,3.062413E-2,-5.3991633E-3,3.992283E-2,1.5814953E-2,8.245637E-2,2.265843E-2,4.5126285E-2,2.3889681E-2,-5.825679E-3,5.3142674E-2,1.4630496E-2,2.7199721E-2,1.4132276E-2,2.8787557E-2,5.7179905E-2,2.2560826E-2,-3.4635544E-3],"split_indices":[32,1,33,2147483647,2147483647,2147483647,2147483647,2147483647,2147483647,2147483647,2147483647,2147483647,2147483647,2147483647,2147483647,2147483647,2147483647,2147483647,2147483647,2147483647,2147483647,2147483647,2147483647,2147483647,2147483647,2147483647,2147483647,2147483647,2147483647],"split_type":[0,0,0,0,0,0,0,0,0,0,0,0,0,0,0,0,0,0,0,0,0,0,0,0,0,0,0,0,0],"sum_hessian":[1.4E2,1.2E1,1.28E2,8E0,4E0,3.4E1,9.4E1,4E0,4E0,2.4E1,1E1,1.6E1,7.8E1,2E0,8E0,4E0,1.2E1,5.2E1,2.6E1,5E1,2E0,2E1,6E0,3.6E1,1.4E1,4E0,1.6E1,4E0,2E0],"tree_param":{"num_deleted":"26","num_feature":"39","num_nodes":"29","size_leaf_vector":"0"}},{"base_weights":[7.7139366E-1,8.8240725E-1,9.501103E-2,1.5644152E0,7.318669E-1,-6.7943573E-1,3.172006E-1,1.1509205E0,5.7124937E-1,4.5563084E-1,1.4352587E-1,3.5817665E-1,1.3603628E0,4.2156777E-1,8.913309E-1,1.797657E-1,7.858086E-2,-1.3794772E-1,5.8421594E-1,9.456933E-1,1.5427983E0,4.467162E-1,-1.4647801E-1,1.1012954E0,2.5408417E-1,1.3675539E-1,4.8500526E-1,4.1525918E-1,-9.9235535E-2],"categories":[],"categories_nodes":[],"categories_segments":[],"categories_sizes":[],"default_left":[1,1,1,0,1,1,1,1,1,1,1,1,1,1,1,1,1,1,1,1,1,1,1,1,1,1,1,1,1],"id":42,"left_children":[1,3,-1,-1,-1,-1,-1,-1,-1,-1,-1,-1,-1,-1,-1,-1,-1,-1,-1,-1,-1,-1,-1,-1,-1,-1,-1,-1,-1],"loss_changes":[1.0503517E1,1.1278091E1,3.8290715E0,0E0,6.140579E0,0E0,3.4331644E-1,3.9956703E0,3.2175179E0,0E0,7.0562214E-3,8.655965E-1,1.2964249E-1,8.225632E-1,2.7975597E0,0E0,0E0,0E0,0E0,0E0,0E0,5.389471E-1,0E0,0E0,4.3983263E-1,0E0,0E0,0E0,0E0],"parents":[2147483647,0,0,1,1,2,2,4,4,6,6,7,7,8,8,10,10,11,11,12,12,13,13,14,14,21,21,24,24],"right_children":[2,4,-1,-1,-1,-1,-1,-1,-1,-1,-1,-1,-1,-1,-1,-1,-1,-1,-1,-1,-1,-1,-1,-1,-1,-1,-1,-1,-1],"split_conditions":[7.8619537E0,3.3817205E0,4.7505517E-3,7.822076E-2,3.6593344E-2,-3.3971786E-2,1.586003E-2,5.7546027E-2,2.856247E-2,2.2781542E-2,7.1762935E-3,1.7908832E-2,6.801814E-2,2.107839E-2,4.4566546E-2,8.988285E-3,3.9290427E-3,-6.897386E-3,2.9210797E-2,4.7284666E-2,7.7139914E-2,2.233581E-2,-7.3239007E-3,5.5064768E-2,1.27042085E-2,6.83777E-3,2.4250263E-2,2.076296E-2,-4.961777E-3],"split_indices":[21,16,8,0,33,2147483647,2147483647,2147483647,2147483647,2147483647,2147483647,2147483647,2147483647,2147483647,2147483647,2147483647,2147483647,2147483647,2147483647,2147483647,2147483647,2147483647,2147483647,2147483647,2147483647,2147483647,2147483647,2147483647,2147483647],"split_type":[0,0,0,0,0,0,0,0,0,0,0,0,0,0,0,0,0,0,0,0,0,0,0,0,0,0,0,0,0],"sum_hessian":[1.4E2,1.2E2,2E1,2E1,1E2,4E0,1.6E1,2.6E1,7.4E1,8E0,8E0,6E0,2E1,5.2E1,2.2E1,4E0,4E0,2E0,4E0,8E0,1.2E1,5E1,2E0,1.6E1,6E0,6E0,4.4E1,4E0,2E0],"tree_param":{"num_deleted":"24","num_feature":"39","num_nodes":"29","size_leaf_vector":"0"}},{"base_weights":[7.3367184E-1,8.476891E-1,1.11858025E-1,6.926633E-1,1.1999605E0,-6.832362E-1,3.1520608E-1,1.2430131E0,5.0420165E-1,1.6552184E0,4.8260218E-1,-5.8548927E-2,3.626213E-1,3.4499073E-1,8.2135826E-1,7.259765E-1,1.0074915E-1,1.7596512E-1,4.065182E-1,1.7087695E-1,4.7744668E-1,5.122098E-1,9.722027E-1,-1.6234334E-1,2.3845482E-1,-1.7670289E-1,2.6305473E-1],"categories":[],"categories_nodes":[],"categories_segments":[],"categories_sizes":[],"default_left":[1,1,1,1,1,1,1,1,1,0,1,1,1,1,1,1,1,1,1,1,1,1,1,1,1,1,1],"id":43,"left_children":[1,3,-1,-1,9,-1,-1,-1,-1,-1,-1,-1,-1,-1,-1,-1,-1,-1,-1,-1,-1,-1,-1,-1,-1,-1,-1],"loss_changes":[9.901726E0,5.667557E0,3.9340198E0,8.189457E0,1.0631592E1,0E0,3.5794306E-1,0E0,2.9988003E0,0E0,1.3208568E0,0E0,6.775856E-2,9.562235E-1,4.8132896E-1,0E0,2.9231685E-1,0E0,0E0,7.193045E-1,0E0,0E0,0E0,0E0,0E0,0E0,0E0],"parents":[2147483647,0,0,1,1,2,2,3,3,4,4,6,6,8,8,10,10,12,12,13,13,14,14,16,16,19,19],"right_children":[2,4,-1,-1,10,-1,-1,-1,-1,-1,-1,-1,-1,-1,-1,-1,-1,-1,-1,-1,-1,-1,-1,-1,-1,-1,-1],"split_conditions":[8.45086E0,5.3344417E-1,5.5929013E-3,3.4633167E-2,3.4505005E0,-3.416181E-2,1.5760304E-2,6.2150657E-2,2.5210083E-2,8.276092E-2,2.413011E-2,-2.9274465E-3,1.8131066E-2,1.7249538E-2,4.1067913E-2,3.6298826E-2,5.0374577E-3,8.798256E-3,2.032591E-2,8.543848E-3,2.3872335E-2,2.561049E-2,4.8610136E-2,-8.117167E-3,1.1922741E-2,-8.835144E-3,1.3152736E-2],"split_indices":[17,14,8,23,3,2147483647,2147483647,2147483647,2147483647,0,4,2147483647,2147483647,2147483647,2147483647,2147483647,2147483647,2147483647,2147483647,2147483647,2147483647,2147483647,2147483647,2147483647,2147483647,2147483647,2147483647],"split_type":[0,0,0,0,0,0,0,0,0,0,0,0,0,0,0,0,0,0,0,0,0,0,0,0,0,0,0],"sum_hessian":[1.4E2,1.18E2,2.2E1,8.4E1,3.4E1,4E0,1.8E1,2E1,6.4E1,2E1,1.4E1,2E0,1.6E1,4.4E1,2E1,8E0,6E0,4E0,1.2E1,2E1,2.4E1,8E0,1.2E1,2E0,4E0,4E0,1.6E1],"tree_param":{"num_deleted":"20","num_feature":"39","num_nodes":"27","size_leaf_vector":"0"}},{"base_weights":[6.9803166E-1,-1.4822127E-1,7.779019E-1,1.6796398E-1,-6.8771046E-1,1.1316725E0,6.393769E-1,4.7073938E-2,2.5526124E-1,-1.7843024E-1,1.2164797E0,1.2115713E0,5.08153E-1,1.3521234E0,7.045273E-1,2.4883461E-1,1.4886569E0,3.522459E-1,7.9537255E-1,3.77469E-1,-1.9396241E-1,9.582776E-1,1.9303282E-1,8.4001265E-2,4.1473135E-1,5.0828665E-1,1.0342586E0,3.582779E-1,-1.4671993E-1],"categories":[],"categories_nodes":[],"categories_segments":[],"categories_sizes":[],"default_left":[1,1,1,1,1,1,1,1,1,1,1,1,1,1,1,1,1,1,1,1,1,1,1,1,1,1,1,1,1],"id":44,"left_children":[-1,-1,-1,-1,-1,-1,-1,-1,-1,-1,-1,-1,-1,-1,-1,-1,-1,-1,-1,-1,-1,-1,-1,-1,-1,-1,-1,-1,-1],"loss_changes":[9.645554E0,2.3330317E0,5.598213E0,8.296418E-2,0E0,4.10577E0,6.5174637E0,0E0,0E0,0E0,1.3390121E0,4.1644974E0,3.2574196E0,0E0,0E0,0E0,0E0,8.0340004E-1,2.4643745E0,5.2286196E-1,0E0,1.9230652E-1,4.455638E-1,0E0,0E0,0E0,0E0,0E0,0E0],"parents":[2147483647,0,0,1,1,2,2,3,3,5,5,6,6,10,10,11,11,12,12,17,17,18,18,19,19,21,21,22,22],"right_children":[-1,-1,-1,-1,-1,-1,-1,-1,-1,-1,-1,-1,-1,-1,-1,-1,-1,-1,-1,-1,-1,-1,-1,-1,-1,-1,-1,-1,-1],"split_conditions":[3.4901585E-2,-7.4110636E-3,3.8895097E-2,8.398199E-3,-3.4385525E-2,5.6583624E-2,3.1968843E-2,2.3536969E-3,1.27630625E-2,-8.921512E-3,6.0823984E-2,6.0578566E-2,2.5407651E-2,6.760617E-2,3.5226367E-2,1.2441731E-2,7.443284E-2,1.7612295E-2,3.976863E-2,1.8873451E-2,-9.698121E-3,4.791388E-2,9.651641E-3,4.200063E-3,2.0736568E-2,2.5414333E-2,5.171293E-2,1.7913895E-2,-7.3359967E-3],"split_indices":[32,2147483647,2147483647,2147483647,2147483647,2147483647,2147483647,2147483647,2147483647,2147483647,2147483647,2147483647,2147483647,2147483647,2147483647,2147483647,2147483647,2147483647,2147483647,2147483647,2147483647,2147483647,2147483647,2147483647,2147483647,2147483647,2147483647,2147483647,2147483647],"split_type":[0,0,0,0,0,0,0,0,0,0,0,0,0,0,0,0,0,0,0,0,0,0,0,0,0,0,0,0,0],"sum_hessian":[1.4E2,1.2E1,1.28E2,8E0,4E0,3.4E1,9.4E1,4E0,4E0,2E0,3.2E1,1.6E1,7.8E1,2.4E1,8E0,4E0,1.2E1,5.2E1,2.6E1,5E1,2E0,2E1,6E0,6E0,4.4E1,4E0,1.6E1,4E0,2E0],"tree_param":{"num_deleted":"28","num_feature":"39","num_nodes":"29","size_leaf_vector":"0"}},{"base_weights":[6.633776E-1,-1.8043813E-1,7.432708E-1,1.3694032E-1,-7.156317E-1,1.0977681E0,6.0484266E-1,1.9152641E-2,2.2733994E-1,-2.0169799E-1,1.1826357E0,1.1787227E0,4.7369322E-1,1.3186178E0,6.7350364E-1,2.2091332E-1,1.45644E0,3.180028E-1,7.617636E-1,3.4325173E-1,-2.1723016E-1,9.250379E-1,1.6311714E-1,5.4085594E-2,3.806053E-1,4.8036537E-1,1.00141E0,3.303566E-1,-1.6998768E-1],"categories":[],"categories_nodes":[],"categories_segments":[],"categories_sizes":[],"default_left":[1,1,1,1,1,1,1,1,1,1,1,1,1,1,1,1,1,1,1,1,1,1,1,1,1,1,1,1,1],"id":45,"left_children":[-1,-1,-1,-1,-1,-1,-1,-1,-1,-1,-1,-1,-1,-1,-1,-1,-1,-1,-1,-1,-1,-1,-1,-1,-1,-1,-1,-1,-1],"loss_changes":[9.639656E0,2.3061647E0,5.666359E0,9.147748E-2,0E0,4.098427E0,6.591732E0,0E0,0E0,0E0,1.3965912E0,4.2002563E0,3.30089E0,0E0,0E0,0E0,0E0,7.908101E-1,2.4881887E0,5.3028584E-1,0E0,2.3213005E-1,4.4611448E-1,0E0,0E0,0E0,0E0,0E0,0E0],"parents":[2147483647,0,0,1,1,2,2,3,3,5,5,6,6,10,10,11,11,12,12,17,17,18,18,19,19,21,21,22,22],"right_children":[-1,-1,-1,-1,-1,-1,-1,-1,-1,-1,-1,-1,-1,-1,-1,-1,-1,-1,-1,-1,-1,-1,-1,-1,-1,-1,-1,-1,-1],"split_conditions":[3.316888E-2,-9.021907E-3,3.716354E-2,6.847016E-3,-3.578159E-2,5.4888405E-2,3.0242134E-2,9.576321E-4,1.1366997E-2,-1.00849E-2,5.9131783E-2,5.8936138E-2,2.3684662E-2,6.5930896E-2,3.3675183E-2,1.1045666E-2,7.2822E-2,1.590014E-2,3.808818E-2,1.7162587E-2,-1.0861508E-2,4.6251897E-2,8.155857E-3,2.7042797E-3,1.9030266E-2,2.4018269E-2,5.0070502E-2,1.6517831E-2,-8.499384E-3],"split_indices":[32,2147483647,2147483647,2147483647,2147483647,2147483647,2147483647,2147483647,2147483647,2147483647,2147483647,2147483647,2147483647,2147483647,2147483647,2147483647,2147483647,2147483647,2147483647,2147483647,2147483647,2147483647,2147483647,2147483647,2147483647,2147483647,2147483647,2147483647,2147483647],"split_type":[0,0,0,0,0,0,0,0,0,0,0,0,0,0,0,0,0,0,0,0,0,0,0,0,0,0,0,0,0],"sum_hessian":[1.4E2,1.2E1,1.28E2,8E0,4E0,3.4E1,9.4E1,4E0,4E0,2E0,3.2E1,1.6E1,7.8E1,2.4E1,8E0,4E0,1.2E1,5.2E1,2.6E1,5E1,2E0,2E1,6E0,6E0,4.4E1,4E0,1.6E1,4E0,2E0],"tree_param":{"num_deleted":"28","num_feature":"39","num_nodes":"29","size_leaf_vector":"0"}},{"base_weights":[6.3964796E-1,-7.421668E-1,6.8608814E-1,1.065547E0,5.477995E-1,-2.2381051E-1,1.150472E0,1.147505E0,4.2141372E-1,1.2867757E0,6.440203E-1,1.9437829E-1,1.4258226E0,2.7313456E-1,7.2982323E-1,3.189461E-1,-1.6812377E-2,8.934486E-1,1.3468674E-1,2.56552E-2,3.5748142E-1,-2.3934269E-1,8.095952E-2,4.5383033E-1,9.701923E-1,3.0382156E-1,-1.9210021E-1],"categories":[],"categories_nodes":[],"categories_segments":[],"categories_sizes":[],"default_left":[1,1,1,1,1,1,1,1,1,1,1,1,1,1,1,1,1,1,1,1,1,1,1,1,1,1,1],"id":46,"left_children":[-1,-1,-1,-1,-1,-1,-1,-1,-1,-1,-1,-1,-1,-1,-1,-1,-1,-1,-1,-1,-1,-1,-1,-1,-1,-1,-1],"loss_changes":[9.429066E0,0E0,6.5003967E0,4.089943E0,7.171646E0,0E0,1.4493217E0,4.2324753E0,3.6877708E0,0E0,0E0,0E0,0E0,7.890539E-1,2.5089083E0,5.6723404E-1,2.1519196E-1,2.681942E-1,4.4526154E-1,0E0,0E0,0E0,0E0,0E0,0E0,0E0,0E0],"parents":[2147483647,0,0,2,2,3,3,4,4,6,6,7,7,8,8,13,13,14,14,15,15,16,16,17,17,18,18],"right_children":[-1,-1,-1,-1,-1,-1,-1,-1,-1,-1,-1,-1,-1,-1,-1,-1,-1,-1,-1,-1,-1,-1,-1,-1,-1,-1,-1],"split_conditions":[3.19824E-2,-3.7108343E-2,3.4304406E-2,5.327735E-2,2.7389977E-2,-1.1190525E-2,5.7523604E-2,5.7375252E-2,2.1070687E-2,6.433879E-2,3.220102E-2,9.7189145E-3,7.1291134E-2,1.3656728E-2,3.6491163E-2,1.5947305E-2,-8.4061886E-4,4.467243E-2,6.734337E-3,1.2827601E-3,1.7874071E-2,-1.1967135E-2,4.0479763E-3,2.2691516E-2,4.8509616E-2,1.5191078E-2,-9.605011E-3],"split_indices":[15,2147483647,2147483647,2147483647,2147483647,2147483647,2147483647,2147483647,2147483647,2147483647,2147483647,2147483647,2147483647,2147483647,2147483647,2147483647,2147483647,2147483647,2147483647,2147483647,2147483647,2147483647,2147483647,2147483647,2147483647,2147483647,2147483647],"split_type":[0,0,0,0,0,0,0,0,0,0,0,0,0,0,0,0,0,0,0,0,0,0,0,0,0,0,0],"sum_hessian":[1.38E2,4E0,1.34E2,3.4E1,1E2,2E0,3.2E1,1.6E1,8.4E1,2.4E1,8E0,4E0,1.2E1,5.8E1,2.6E1,5E1,8E0,2E1,6E0,6E0,4.4E1,2E0,6E0,4E0,1.6E1,4E0,2E0],"tree_param":{"num_deleted":"26","num_feature":"39","num_nodes":"27","size_leaf_vector":"0"}},{"base_weights":[6.078956E-1,-7.6775277E-1,6.543426E-1,1.0344783E0,5.161338E-1,1.2560726E0,4.3681154E-1,1.117404E0,3.8980758E-1,-2.4513213E-1,6.1559147E-1,1.6879234E-1,1.3963004E0,2.4169421E-1,6.990254E-1,2.8759077E-1,-4.5241196E-2,8.629891E-1,1.07273236E-1,-1.7583029E-3,3.2620972E-1,-2.606643E-1,5.354602E-2,4.282444E-1,9.400912E-1,2.782356E-1,-2.1342182E-1],"categories":[],"categories_nodes":[],"categories_segments":[],"categories_sizes":[],"default_left":[1,1,1,1,1,1,1,1,1,1,1,1,1,1,1,1,1,1,1,1,1,1,1,1,1,1,1],"id":47,"left_children":[-1,-1,-1,-1,-1,-1,-1,-1,-1,-1,-1,-1,-1,-1,-1,-1,-1,-1,-1,-1,-1,-1,-1,-1,-1,-1,-1],"loss_changes":[9.383739E0,0E0,6.558712E0,4.0867157E0,7.236E0,0E0,1.4919977E0,4.2619095E0,3.7239895E0,0E0,0E0,0E0,0E0,7.900021E-1,2.5271244E0,5.7046556E-1,2.0548698E-1,3.0132484E-1,4.4316912E-1,0E0,0E0,0E0,0E0,0E0,0E0,0E0,0E0],"parents":[2147483647,0,0,2,2,3,3,4,4,6,6,7,7,8,8,13,13,14,14,15,15,16,16,17,17,18,18],"right_children":[-1,-1,-1,-1,-1,-1,-1,-1,-1,-1,-1,-1,-1,-1,-1,-1,-1,-1,-1,-1,-1,-1,-1,-1,-1,-1,-1],"split_conditions":[3.0394781E-2,-3.8387638E-2,3.271713E-2,5.1723916E-2,2.580669E-2,6.280363E-2,2.1840578E-2,5.58702E-2,1.949038E-2,-1.22566065E-2,3.0779574E-2,8.439617E-3,6.9815025E-2,1.208471E-2,3.495127E-2,1.4379539E-2,-2.2620598E-3,4.3149456E-2,5.363662E-3,-8.791515E-5,1.6310487E-2,-1.3033216E-2,2.677301E-3,2.1412222E-2,4.7004562E-2,1.3911781E-2,-1.0671091E-2],"split_indices":[15,2147483647,2147483647,2147483647,2147483647,2147483647,2147483647,2147483647,2147483647,2147483647,2147483647,2147483647,2147483647,2147483647,2147483647,2147483647,2147483647,2147483647,2147483647,2147483647,2147483647,2147483647,2147483647,2147483647,2147483647,2147483647,2147483647],"split_type":[0,0,0,0,0,0,0,0,0,0,0,0,0,0,0,0,0,0,0,0,0,0,0,0,0,0,0],"sum_hessian":[1.38E2,4E0,1.34E2,3.4E1,1E2,2.4E1,1E1,1.6E1,8.4E1,2E0,8E0,4E0,1.2E1,5.8E1,2.6E1,5E1,8E0,2E1,6E0,6E0,4.4E1,2E0,6E0,4E0,1.6E1,4E0,2E0],"tree_param":{"num_deleted":"26","num_feature":"39","num_nodes":"27","size_leaf_vector":"0"}},{"base_weights":[5.777197E-1,-7.920686E-1,6.2417316E-1,1.0049522E0,4.8604012E-1,1.2268939E0,4.0918013E-1,1.0887973E0,3.5977057E-1,-2.6539516E-1,5.885741E-1,1.444767E-1,1.3682439E0,2.1181478E-1,6.6975653E-1,2.5779215E-1,-7.225863E-2,8.3404195E-1,8.122076E-2,-2.7810846E-2,2.9649055E-1,-2.8092733E-1,2.7493477E-2,4.0392876E-1,9.1148454E-1,2.5392E-1,-2.3368485E-1],"categories":[],"categories_nodes":[],"categories_segments":[],"categories_sizes":[],"default_left":[1,1,1,1,1,1,1,1,1,1,1,1,1,1,1,1,1,1,1,1,1,1,1,1,1,1,1],"id":48,"left_children":[-1,-1,-1,-1,-1,-1,-1,-1,-1,-1,-1,-1,-1,-1,-1,-1,-1,-1,-1,-1,-1,-1,-1,-1,-1,-1,-1],"loss_changes":[9.339157E0,0E0,6.6123123E0,4.1259117E0,7.2953815E0,0E0,1.4873668E0,4.2884026E0,3.7565937E0,0E0,0E0,0E0,0E0,7.892237E-1,2.5428305E0,5.7191706E-1,1.9505996E-1,3.31316E-1,4.4002494E-1,0E0,0E0,0E0,0E0,0E0,0E0,0E0,0E0],"parents":[2147483647,0,0,2,2,3,3,4,4,6,6,7,7,8,8,13,13,14,14,15,15,16,16,17,17,18,18],"right_children":[-1,-1,-1,-1,-1,-1,-1,-1,-1,-1,-1,-1,-1,-1,-1,-1,-1,-1,-1,-1,-1,-1,-1,-1,-1,-1,-1],"split_conditions":[2.8885985E-2,-3.960343E-2,3.1208659E-2,5.024761E-2,2.4302006E-2,6.1344694E-2,2.0459007E-2,5.443987E-2,1.7988529E-2,-1.3269759E-2,2.9428706E-2,7.2238347E-3,6.84122E-2,1.0590739E-2,3.3487827E-2,1.2889608E-2,-3.6129316E-3,4.17021E-2,4.061038E-3,-1.3905423E-3,1.4824527E-2,-1.4046366E-2,1.3746739E-3,2.0196438E-2,4.557423E-2,1.2696E-2,-1.1684243E-2],"split_indices":[15,2147483647,2147483647,2147483647,2147483647,2147483647,2147483647,2147483647,2147483647,2147483647,2147483647,2147483647,2147483647,2147483647,2147483647,2147483647,2147483647,2147483647,2147483647,2147483647,2147483647,2147483647,2147483647,2147483647,2147483647,2147483647,2147483647],"split_type":[0,0,0,0,0,0,0,0,0,0,0,0,0,0,0,0,0,0,0,0,0,0,0,0,0,0,0],"sum_hessian":[1.38E2,4E0,1.34E2,3.4E1,1E2,2.4E1,1E1,1.6E1,8.4E1,2E0,8E0,4E0,1.2E1,5.8E1,2.6E1,5E1,8E0,2E1,6E0,6E0,4.4E1,2E0,6E0,4E0,1.6E1,4E0,2E0],"tree_param":{"num_deleted":"26","num_feature":"39","num_nodes":"27","size_leaf_vector":"0"}},{"base_weights":[5.490416E-1,6.613028E-1,-4.5897525E-2,4.0239272E-1,8.6224025E-1,-8.151773E-1,1.589602E-1,-3.2255667E-1,4.6815506E-1,5.240772E-1,1.382338E0,-4.076835E-2,2.5427863E-1,2.8963986E-1,7.871461E-1,1.020295E0,2.8356308E-1,4.4024277E-2,-1.6849995E-1,5.299958E-1,1.9152611E-1,4.081703E-1,8.723563E-1,3.729946E-1,-2.2030726E-1,9.252064E-2,2.757988E-1,5.7709694E-1,2.4299958E-1,-3.0018458E-1,-6.699419E-2],"categories":[],"categories_nodes":[],"categories_segments":[],"categories_sizes":[],"default_left":[1,1,1,1,1,1,1,1,1,1,0,1,1,1,1,1,1,1,1,1,1,1,1,1,1,1,1,1,1,1,1],"id":49,"left_children":[1,3,-1,-1,9,-1,-1,-1,-1,-1,-1,-1,-1,-1,-1,-1,-1,-1,-1,-1,-1,-1,-1,-1,-1,-1,-1,-1,-1,-1,-1],"loss_changes":[9.313965E0,5.739933E0,3.7542176E0,2.6777487E0,1.0707611E1,0E0,3.7208495E-1,0E0,2.5623035E0,4.6039257E0,0E0,8.323298E-2,0E0,6.7670536E-1,1.9290447E-1,0E0,1.3889687E0,0E0,0E0,0E0,1.8306929E-1,0E0,0E0,5.230727E-1,4.112056E-2,0E0,0E0,0E0,0E0,0E0,0E0],"parents":[2147483647,0,0,1,1,2,2,3,3,4,4,6,6,8,8,9,9,11,11,13,13,14,14,16,16,20,20,23,23,24,24],"right_children":[2,4,-1,-1,10,-1,-1,-1,-1,-1,-1,-1,-1,-1,-1,-1,-1,-1,-1,-1,-1,-1,-1,-1,-1,-1,-1,-1,-1,-1,-1],"split_conditions":[8.45086E0,1.0912896E0,-2.2948764E-3,2.0119635E-2,2.4144883E-1,-4.0758867E-2,7.94801E-3,-1.6127834E-2,2.3407754E-2,2.620386E-2,6.9116905E-2,-2.0384176E-3,1.27139315E-2,1.4481993E-2,3.9357305E-2,5.101475E-2,1.4178154E-2,2.201214E-3,-8.424997E-3,2.6499791E-2,9.576306E-3,2.0408517E-2,4.3617815E-2,1.864973E-2,-1.1015363E-2,4.626032E-3,1.378994E-2,2.8854847E-2,1.2149979E-2,-1.5009229E-2,-3.3497096E-3],"split_indices":[17,5,8,18,11,2147483647,2147483647,2147483647,2147483647,12,0,2147483647,2147483647,2147483647,2147483647,2147483647,2147483647,2147483647,2147483647,2147483647,2147483647,2147483647,2147483647,2147483647,2147483647,2147483647,2147483647,2147483647,2147483647,2147483647,2147483647],"split_type":[0,0,0,0,0,0,0,0,0,0,0,0,0,0,0,0,0,0,0,0,0,0,0,0,0,0,0,0,0,0,0],"sum_hessian":[1.38E2,1.16E2,2.2E1,5.2E1,6.4E1,4E0,1.8E1,4E0,4.8E1,4E1,2.4E1,6E0,1.2E1,3.2E1,1.6E1,1.2E1,2.8E1,4E0,2E0,8E0,2.4E1,4E0,1.2E1,2.4E1,4E0,1.2E1,1.2E1,8E0,1.6E1,2E0,2E0],"tree_param":{"num_deleted":"24","num_feature":"39","num_nodes":"31","size_leaf_vector":"0"}},{"base_weights":[5.224036E-1,-8.1334144E-1,5.68006E-1,9.3355745E-1,4.3570587E-1,-2.980655E-1,1.0172335E0,1.0297141E0,3.1177828E-1,1.1465434E0,5.4501367E-1,1.0527229E-1,1.30606E0,1.6882826E-1,6.126032E-1,2.1446897E-1,-1.0856109E-1,7.757195E-1,3.573949E-2,-6.341151E-2,2.5292885E-1,-3.1765366E-1,-3.4412656E-3,3.5985717E-1,8.524014E-1,2.098484E-1,-2.663552E-1],"categories":[],"categories_nodes":[],"categories_segments":[],"categories_sizes":[],"default_left":[1,1,1,1,1,1,1,1,1,1,1,1,1,1,1,1,1,1,1,1,1,1,1,1,1,1,1],"id":50,"left_children":[-1,-1,-1,-1,-1,-1,-1,-1,-1,-1,-1,-1,-1,-1,-1,-1,-1,-1,-1,-1,-1,-1,-1,-1,-1,-1,-1],"loss_changes":[8.928909E0,0E0,6.122181E0,3.9102097E0,7.1139717E0,0E0,1.3901863E0,4.2054234E0,3.5518246E0,0E0,0E0,0E0,0E0,7.7023745E-1,2.512865E0,5.610883E-1,1.9672486E-1,3.629284E-1,4.2407584E-1,0E0,0E0,0E0,0E0,0E0,0E0,0E0,0E0],"parents":[2147483647,0,0,2,2,3,3,4,4,6,6,7,7,8,8,13,13,14,14,15,15,16,16,17,17,18,18],"right_children":[-1,-1,-1,-1,-1,-1,-1,-1,-1,-1,-1,-1,-1,-1,-1,-1,-1,-1,-1,-1,-1,-1,-1,-1,-1,-1,-1],"split_conditions":[2.612018E-2,-4.0667072E-2,2.84003E-2,4.6677873E-2,2.1785295E-2,-1.4903276E-2,5.0861675E-2,5.1485706E-2,1.5588914E-2,5.732717E-2,2.7250683E-2,5.263615E-3,6.5303E-2,8.441414E-3,3.063016E-2,1.0723448E-2,-5.428055E-3,3.8785975E-2,1.7869745E-3,-3.1705757E-3,1.2646443E-2,-1.5882684E-2,-1.7206329E-4,1.799286E-2,4.262007E-2,1.0492421E-2,-1.3317759E-2],"split_indices":[15,2147483647,2147483647,2147483647,2147483647,2147483647,2147483647,2147483647,2147483647,2147483647,2147483647,2147483647,2147483647,2147483647,2147483647,2147483647,2147483647,2147483647,2147483647,2147483647,2147483647,2147483647,2147483647,2147483647,2147483647,2147483647,2147483647],"split_type":[0,0,0,0,0,0,0,0,0,0,0,0,0,0,0,0,0,0,0,0,0,0,0,0,0,0,0],"sum_hessian":[1.38E2,4E0,1.34E2,3.4E1,1E2,2E0,3.2E1,1.6E1,8.4E1,2.4E1,8E0,4E0,1.2E1,5.8E1,2.6E1,5E1,8E0,2E1,6E0,6E0,4.4E1,2E0,6E0,4E0,1.6E1,4E0,2E0],"tree_param":{"num_deleted":"26","num_feature":"39","num_nodes":"27","size_leaf_vector":"0"}},{"base_weights":[5.0389224E-1,6.167736E-1,-8.2423E-2,1.1214722E0,4.987163E-1,1.1976099E-1,-8.342376E-1,9.1291517E-1,1.6062717E0,8.851798E-1,3.4026366E-1,1.663888E-1,-1.8438356E-1,1.2992218E-1,1.0947809E0,1.3692856E-1,7.9850924E-1,7.812616E-2,2.3616378E-1,-3.1547895E-1,3.7117845E-1,1.1853018E0,5.6805384E-1,-1.077853E-1,2.1920833E-1,3.3896104E-1,8.866993E-1,-3.0887684E-1,1.0870416E-1,6.0744602E-2,2.608278E-1],"categories":[],"categories_nodes":[],"categories_segments":[],"categories_sizes":[],"default_left":[1,1,1,1,1,1,1,1,1,1,1,1,1,1,1,1,1,1,1,1,1,1,1,1,1,1,1,1,1,1,1],"id":51,"left_children":[-1,-1,-1,-1,-1,-1,-1,-1,-1,-1,-1,-1,-1,-1,-1,-1,-1,-1,-1,-1,-1,-1,-1,-1,-1,-1,-1,-1,-1,-1,-1],"loss_changes":[9.118053E0,6.2927895E0,3.5960212E0,6.5688515E-1,5.516241E0,3.0012956E-1,0E0,0E0,0E0,4.131941E0,6.3199024E0,8.6244315E-2,0E0,8.692897E-1,3.2796097E-1,1.0102425E0,5.505228E-1,0E0,0E0,0E0,0E0,0E0,0E0,5.9952086E-1,2.2817779E-1,0E0,0E0,0E0,0E0,0E0,0E0],"parents":[2147483647,0,0,1,1,2,2,3,3,4,4,5,5,9,9,10,10,11,11,13,13,14,14,15,15,16,16,23,23,24,24],"right_children":[-1,-1,-1,-1,-1,-1,-1,-1,-1,-1,-1,-1,-1,-1,-1,-1,-1,-1,-1,-1,-1,-1,-1,-1,-1,-1,-1,-1,-1,-1,-1],"split_conditions":[2.5194613E-2,3.0838681E-2,-4.1211504E-3,5.6073613E-2,2.4935815E-2,5.98805E-3,-4.1711878E-2,4.564576E-2,8.0313586E-2,4.4258993E-2,1.7013183E-2,8.31944E-3,-9.219178E-3,6.496109E-3,5.4739047E-2,6.846428E-3,3.9925463E-2,3.906308E-3,1.180819E-2,-1.5773948E-2,1.8558923E-2,5.926509E-2,2.8402692E-2,-5.3892653E-3,1.0960417E-2,1.6948052E-2,4.4334967E-2,-1.5443842E-2,5.435208E-3,3.03723E-3,1.3041391E-2],"split_indices":[18,2147483647,2147483647,2147483647,2147483647,2147483647,2147483647,2147483647,2147483647,2147483647,2147483647,2147483647,2147483647,2147483647,2147483647,2147483647,2147483647,2147483647,2147483647,2147483647,2147483647,2147483647,2147483647,2147483647,2147483647,2147483647,2147483647,2147483647,2147483647,2147483647,2147483647],"split_type":[0,0,0,0,0,0,0,0,0,0,0,0,0,0,0,0,0,0,0,0,0,0,0,0,0,0,0,0,0,0,0],"sum_hessian":[1.36E2,1.14E2,2.2E1,2E1,9.4E1,1.8E1,4E0,1.6E1,4E0,2.6E1,6.8E1,1.6E1,2E0,6E0,2E1,4.8E1,2E1,8E0,8E0,2E0,4E0,1.6E1,4E0,1.2E1,3.6E1,4E0,1.6E1,6E0,6E0,8E0,2.8E1],"tree_param":{"num_deleted":"30","num_feature":"39","num_nodes":"31","size_leaf_vector":"0"}},{"base_weights":[4.788815E-1,5.9179807E-1,-1.06522225E-1,1.0974773E0,4.7378686E-1,9.589238E-2,-8.543933E-1,8.892026E-1,1.5861161E0,8.6091834E-1,3.1543416E-1,1.4267619E-1,-2.0117998E-1,1.0832678E-1,1.0707861E0,1.1224809E-1,7.745143E-1,5.5730924E-2,2.1376854E-1,-3.322754E-1,3.5102272E-1,1.1615893E0,5.478981E-1,-1.310419E-1,1.9469462E-1,3.188053E-1,8.6298674E-1,-3.3047226E-1,8.7108746E-2,3.8349364E-2,2.3650196E-1],"categories":[],"categories_nodes":[],"categories_segments":[],"categories_sizes":[],"default_left":[1,1,1,1,1,1,1,1,1,1,1,1,1,1,1,1,1,1,1,1,1,1,1,1,1,1,1,1,1,1,1],"id":52,"left_children":[-1,-1,-1,-1,-1,-1,-1,-1,-1,-1,-1,-1,-1,-1,-1,-1,-1,-1,-1,-1,-1,-1,-1,-1,-1,-1,-1,-1,-1,-1,-1],"loss_changes":[9.118984E0,6.3427467E0,3.5636706E0,7.2681427E-1,5.552252E0,2.9276893E-1,0E0,0E0,0E0,4.148512E0,6.3492923E0,9.3165904E-2,0E0,8.6516273E-1,3.606434E-1,1.0083755E0,5.7154655E-1,0E0,0E0,0E0,0E0,0E0,0E0,5.943633E-1,2.3277628E-1,0E0,0E0,0E0,0E0,0E0,0E0],"parents":[2147483647,0,0,1,1,2,2,3,3,4,4,5,5,9,9,10,10,11,11,13,13,14,14,15,15,16,16,23,23,24,24],"right_children":[-1,-1,-1,-1,-1,-1,-1,-1,-1,-1,-1,-1,-1,-1,-1,-1,-1,-1,-1,-1,-1,-1,-1,-1,-1,-1,-1,-1,-1,-1,-1],"split_conditions":[2.3944076E-2,2.9589904E-2,-5.3261113E-3,5.4873865E-2,2.3689343E-2,4.794619E-3,-4.2719666E-2,4.446013E-2,7.9305805E-2,4.304592E-2,1.5771708E-2,7.1338094E-3,-1.0058999E-2,5.416339E-3,5.3539306E-2,5.6124046E-3,3.8725715E-2,2.7865462E-3,1.0688427E-2,-1.661377E-2,1.7551137E-2,5.8079462E-2,2.7394906E-2,-6.552095E-3,9.734731E-3,1.5940266E-2,4.3149337E-2,-1.6523613E-2,4.3554376E-3,1.9174683E-3,1.1825099E-2],"split_indices":[18,2147483647,2147483647,2147483647,2147483647,2147483647,2147483647,2147483647,2147483647,2147483647,2147483647,2147483647,2147483647,2147483647,2147483647,2147483647,2147483647,2147483647,2147483647,2147483647,2147483647,2147483647,2147483647,2147483647,2147483647,2147483647,2147483647,2147483647,2147483647,2147483647,2147483647],"split_type":[0,0,0,0,0,0,0,0,0,0,0,0,0,0,0,0,0,0,0,0,0,0,0,0,0,0,0,0,0,0,0],"sum_hessian":[1.36E2,1.14E2,2.2E1,2E1,9.4E1,1.8E1,4E0,1.6E1,4E0,2.6E1,6.8E1,1.6E1,2E0,6E0,2E1,4.8E1,2E1,8E0,8E0,2E0,4E0,1.6E1,4E0,1.2E1,3.6E1,4E0,1.6E1,6E0,6E0,8E0,2.8E1],"tree_param":{"num_deleted":"30","num_feature":"39","num_nodes":"31","size_leaf_vector":"0"}},{"base_weights":[4.621204E-1,5.78434E-1,-1.2942521E-1,1.0746737E0,4.6016014E-1,7.3208556E-2,-8.735485E-1,8.6666715E-1,1.5669609E0,8.3786124E-1,3.0108416E-1,1.20140634E-1,-2.1714275E-1,8.780343E-2,1.0479823E0,9.333437E-2,7.517106E-1,3.4447353E-2,1.9248496E-1,-3.48238E-1,3.318676E-1,1.1390538E0,5.2874297E-1,-1.5314399E-1,1.8221678E-1,2.996502E-1,8.404513E-1,1.5381241E-2,4.6623994E-2,-3.509957E-1,6.658541E-2,2.7065685E-2,2.133837E-1],"categories":[],"categories_nodes":[],"categories_segments":[],"categories_sizes":[],"default_left":[1,1,1,1,1,1,1,1,1,1,1,1,1,1,1,1,1,1,1,1,1,1,1,1,1,1,1,1,1,1,1,1,1],"id":53,"left_children":[-1,-1,-1,-1,-1,-1,-1,-1,-1,-1,-1,-1,-1,-1,-1,-1,-1,-1,-1,-1,-1,-1,-1,-1,-1,-1,-1,-1,-1,-1,-1,-1,-1],"loss_changes":[9.363506E0,6.1376915E0,3.531995E0,7.9234314E-1,5.3354683E0,2.849967E-1,0E0,0E0,0E0,4.163265E0,6.202215E0,9.875958E-2,0E0,8.605235E-1,3.907776E-1,1.0575621E0,5.905981E-1,1.3723159E-3,0E0,0E0,0E0,0E0,0E0,5.88531E-1,1.6347003E-1,0E0,0E0,0E0,0E0,0E0,0E0,0E0,0E0],"parents":[2147483647,0,0,1,1,2,2,3,3,4,4,5,5,9,9,10,10,11,11,13,13,14,14,15,15,16,16,17,17,23,23,24,24],"right_children":[-1,-1,-1,-1,-1,-1,-1,-1,-1,-1,-1,-1,-1,-1,-1,-1,-1,-1,-1,-1,-1,-1,-1,-1,-1,-1,-1,-1,-1,-1,-1,-1,-1],"split_conditions":[2.3106022E-2,2.89217E-2,-6.471261E-3,5.3733684E-2,2.3008008E-2,3.6604279E-3,-4.3677427E-2,4.333336E-2,7.834805E-2,4.189306E-2,1.5054208E-2,6.007032E-3,-1.0857138E-2,4.3901717E-3,5.2399117E-2,4.6667187E-3,3.758553E-2,1.7223677E-3,9.624248E-3,-1.74119E-2,1.659338E-2,5.6952693E-2,2.6437148E-2,-7.6571996E-3,9.110839E-3,1.4982509E-2,4.2022567E-2,7.690621E-4,2.3311998E-3,-1.7549785E-2,3.3292703E-3,1.3532842E-3,1.0669186E-2],"split_indices":[18,2147483647,2147483647,2147483647,2147483647,2147483647,2147483647,2147483647,2147483647,2147483647,2147483647,2147483647,2147483647,2147483647,2147483647,2147483647,2147483647,2147483647,2147483647,2147483647,2147483647,2147483647,2147483647,2147483647,2147483647,2147483647,2147483647,2147483647,2147483647,2147483647,2147483647,2147483647,2147483647],"split_type":[0,0,0,0,0,0,0,0,0,0,0,0,0,0,0,0,0,0,0,0,0,0,0,0,0,0,0,0,0,0,0,0,0],"sum_hessian":[1.34E2,1.12E2,2.2E1,2E1,9.2E1,1.8E1,4E0,1.6E1,4E0,2.6E1,6.6E1,1.6E1,2E0,6E0,2E1,4.6E1,2E1,8E0,8E0,2E0,4E0,1.6E1,4E0,1.2E1,3.4E1,4E0,1.6E1,4E0,4E0,6E0,6E0,6E0,2.8E1],"tree_param":{"num_deleted":"32","num_feature":"39","num_nodes":"33","size_leaf_vector":"0"}},{"base_weights":[4.4584814E-1,-8.920333E-1,4.9424782E-1,3.3470035E-1,7.8463197E-1,9.199281E-1,1.8566309E-1,2.2712149E-1,1.2215555E0,3.895083E-2,5.191506E-1,3.4519038E-1,-2.1973705E-1,9.290886E-1,1.4200566E0,9.423597E-2,-3.062223E-1,2.290677E-1,6.8004256E-1,9.584732E-2,4.1453844E-1,-3.6364207E-1,-2.5863647E-3,-3.832302E-1,1.2687409E-1,1.3115653E-1,2.811653E-1],"categories":[],"categories_nodes":[],"categories_segments":[],"categories_sizes":[],"default_left":[1,0,1,1,1,1,1,1,1,1,1,1,1,1,1,1,1,1,1,1,1,1,1,1,1,1,1],"id":54,"left_children":[1,-1,3,-1,7,-1,-1,-1,-1,-1,-1,-1,-1,-1,-1,-1,-1,-1,-1,-1,-1,-1,-1,-1,-1,-1,-1],"loss_changes":[9.053041E0,0E0,5.7139587E0,7.2429657E0,1.068408E1,0E0,3.3557217E0,1.1838132E0,1.3201904E-1,9.6392155E-1,8.2433605E-1,2.542224E-1,1.5530483E-1,0E0,0E0,7.187166E-1,0E0,9.031773E-3,0E0,0E0,0E0,0E0,0E0,0E0,0E0,0E0,0E0],"parents":[2147483647,0,0,2,2,3,3,4,4,6,6,7,7,8,8,9,9,10,10,11,11,12,12,15,15,17,17],"right_children":[2,-1,4,-1,8,-1,-1,-1,-1,-1,-1,-1,-1,-1,-1,-1,-1,-1,-1,-1,-1,-1,-1,-1,-1,-1,-1],"split_conditions":[1.5279877E0,-4.4601664E-2,2.4439959E-1,1.6735017E-2,1.1052914E0,4.5996405E-2,9.283154E-3,1.1356074E-2,6.1077774E-2,1.9475416E-3,2.595753E-2,1.725952E-2,-1.0986852E-2,4.645443E-2,7.100283E-2,4.711799E-3,-1.53111145E-2,1.1453385E-2,3.400213E-2,4.792366E-3,2.0726923E-2,-1.8182104E-2,-1.2931824E-4,-1.9161511E-2,6.3437046E-3,6.557827E-3,1.4058265E-2],"split_indices":[15,0,11,23,5,2147483647,2147483647,10,8,2147483647,2147483647,2147483647,2147483647,2147483647,2147483647,2147483647,2147483647,2147483647,2147483647,2147483647,2147483647,2147483647,2147483647,2147483647,2147483647,2147483647,2147483647],"split_type":[0,0,0,0,0,0,0,0,0,0,0,0,0,0,0,0,0,0,0,0,0,0,0,0,0,0,0],"sum_hessian":[1.32E2,4E0,1.28E2,8.4E1,4.4E1,1.6E1,6.8E1,2E1,2.4E1,4.8E1,2E1,1.6E1,4E0,1.2E1,1.2E1,4.2E1,6E0,8E0,1.2E1,4E0,1.2E1,2E0,2E0,2E0,4E1,4E0,4E0],"tree_param":{"num_deleted":"20","num_feature":"39","num_nodes":"27","size_leaf_vector":"0"}},{"base_weights":[4.2389083E-1,5.3038436E-1,-1.6933098E-1,1.0198373E0,4.1415966E-1,9.712798E-2,-7.1612436E-1,8.18736E-1,1.499614E0,7.817802E-1,2.598326E-1,6.183488E-3,1.5707058E-1,-8.56352E-1,-2.4370353E-1,5.8264595E-2,9.857244E-1,5.525649E-2,7.053205E-1,-1.0156949E-2,1.47510525E-2,-3.7121263E-1,3.04298E-1,1.0702556E0,5.011734E-1,-1.8992046E-1,1.4474346E-1,2.6777726E-1,7.9252017E-1,-3.8514525E-1,3.2435827E-2,-7.083893E-3,1.7640029E-1],"categories":[],"categories_nodes":[],"categories_segments":[],"categories_sizes":[],"default_left":[1,1,1,1,1,1,1,1,1,1,1,1,1,1,1,1,1,1,1,1,1,1,1,1,1,1,1,1,1,1,1,1,1],"id":55,"left_children":[-1,-1,-1,-1,-1,-1,-1,-1,-1,-1,-1,-1,-1,-1,-1,-1,-1,-1,-1,-1,-1,-1,-1,-1,-1,-1,-1,-1,-1,-1,-1,-1,-1],"loss_changes":[8.491987E0,6.005802E0,3.1292136E0,7.9836845E-1,5.0731125E0,8.080052E-2,2.5502896E-1,0E0,0E0,3.9266014E0,6.06715E0,1.12981E-3,0E0,0E0,0E0,8.526195E-1,3.2377052E-1,1.0586765E0,5.890074E-1,0E0,0E0,0E0,0E0,0E0,0E0,5.7681555E-1,1.6947258E-1,0E0,0E0,0E0,0E0,0E0,0E0],"parents":[2147483647,0,0,1,1,2,2,3,3,4,4,5,5,6,6,9,9,10,10,11,11,15,15,16,16,17,17,18,18,25,25,26,26],"right_children":[-1,-1,-1,-1,-1,-1,-1,-1,-1,-1,-1,-1,-1,-1,-1,-1,-1,-1,-1,-1,-1,-1,-1,-1,-1,-1,-1,-1,-1,-1,-1,-1,-1],"split_conditions":[2.1194542E-2,2.6519218E-2,-8.466549E-3,5.0991863E-2,2.0707984E-2,4.8563993E-3,-3.580622E-2,4.09368E-2,7.49807E-2,3.908901E-2,1.299163E-2,3.091744E-4,7.853529E-3,-4.28176E-2,-1.2185177E-2,2.9132299E-3,4.928622E-2,2.7628245E-3,3.5266023E-2,-5.0784746E-4,7.3755265E-4,-1.8560631E-2,1.52149005E-2,5.351278E-2,2.505867E-2,-9.496023E-3,7.237173E-3,1.3388864E-2,3.962601E-2,-1.9257262E-2,1.6217914E-3,-3.5419464E-4,8.820015E-3],"split_indices":[18,2147483647,2147483647,2147483647,2147483647,2147483647,2147483647,2147483647,2147483647,2147483647,2147483647,2147483647,2147483647,2147483647,2147483647,2147483647,2147483647,2147483647,2147483647,2147483647,2147483647,2147483647,2147483647,2147483647,2147483647,2147483647,2147483647,2147483647,2147483647,2147483647,2147483647,2147483647,2147483647],"split_type":[0,0,0,0,0,0,0,0,0,0,0,0,0,0,0,0,0,0,0,0,0,0,0,0,0,0,0,0,0,0,0,0,0],"sum_hessian":[1.32E2,1.12E2,2E1,2E1,9.2E1,1.4E1,6E0,1.6E1,4E0,2.6E1,6.6E1,6E0,8E0,4E0,2E0,6E0,2E1,4.6E1,2E1,2E0,4E0,2E0,4E0,1.6E1,4E0,1.2E1,3.4E1,4E0,1.6E1,6E0,6E0,6E0,2.8E1],"tree_param":{"num_deleted":"32","num_feature":"39","num_nodes":"33","size_leaf_vector":"0"}},{"base_weights":[4.1546303E-1,-5.4422545E-1,4.8341122E-1,-1.0629816E-1,-8.733076E-1,1.0156116E0,3.8054502E-1,-1.7532651E-1,-1.8370947E-3,-3.135999E-3,1.1356488E0,7.4982774E-1,2.185134E-1,-3.8534227E-1,8.4140295E-1,6.664288E-2,4.747875E-1,9.782326E-1,4.286446E-1,9.683923E-2,-4.0851656E-1,6.374692E-1,-8.108425E-2,-2.0351467E-1,1.3110583E-1,2.5082168E-1,7.136908E-1,1.0081291E-1,-3.5721812E-1],"categories":[],"categories_nodes":[],"categories_segments":[],"categories_sizes":[],"default_left":[1,1,1,1,1,1,1,1,1,1,1,1,1,1,1,1,1,1,1,1,1,1,1,1,1,1,1,1,1],"id":56,"left_children":[-1,-1,-1,-1,-1,-1,-1,-1,-1,-1,-1,-1,-1,-1,-1,-1,-1,-1,-1,-1,-1,-1,-1,-1,-1,-1,-1,-1,-1],"loss_changes":[8.67506E0,1.2041955E0,6.237713E0,3.5731785E-2,0E0,2.3270245E0,5.9992046E0,0E0,0E0,0E0,0E0,3.5467854E0,2.8095539E0,0E0,1.2185364E0,7.139201E-1,2.4933023E0,0E0,0E0,4.8982662E-1,0E0,4.3988037E-1,3.8760793E-1,0E0,0E0,0E0,0E0,0E0,0E0],"parents":[2147483647,0,0,1,1,2,2,3,3,5,5,6,6,11,11,12,12,14,14,15,15,16,16,19,19,21,21,22,22],"right_children":[-1,-1,-1,-1,-1,-1,-1,-1,-1,-1,-1,-1,-1,-1,-1,-1,-1,-1,-1,-1,-1,-1,-1,-1,-1,-1,-1,-1,-1],"split_conditions":[2.0773152E-2,-2.7211273E-2,2.417056E-2,-5.3149085E-3,-4.366538E-2,5.0780583E-2,1.9027252E-2,-8.766326E-3,-9.185474E-5,-1.5679996E-4,5.6782443E-2,3.749139E-2,1.092567E-2,-1.9267114E-2,4.2070147E-2,3.332144E-3,2.3739375E-2,4.891163E-2,2.143223E-2,4.8419614E-3,-2.0425828E-2,3.187346E-2,-4.0542125E-3,-1.0175734E-2,6.5552914E-3,1.2541085E-2,3.568454E-2,5.0406456E-3,-1.7860906E-2],"split_indices":[32,2147483647,2147483647,2147483647,2147483647,2147483647,2147483647,2147483647,2147483647,2147483647,2147483647,2147483647,2147483647,2147483647,2147483647,2147483647,2147483647,2147483647,2147483647,2147483647,2147483647,2147483647,2147483647,2147483647,2147483647,2147483647,2147483647,2147483647,2147483647],"split_type":[0,0,0,0,0,0,0,0,0,0,0,0,0,0,0,0,0,0,0,0,0,0,0,0,0,0,0,0,0],"sum_hessian":[1.28E2,8E0,1.2E2,4E0,4E0,1.8E1,1.02E2,2E0,2E0,2E0,1.6E1,3E1,7.2E1,2E0,2.8E1,4.6E1,2.6E1,2E1,8E0,4.4E1,2E0,2E1,6E0,4E0,4E1,4E0,1.6E1,4E0,2E0],"tree_param":{"num_deleted":"28","num_feature":"39","num_nodes":"29","size_leaf_vector":"0"}},{"base_weights":[3.948511E-1,-5.626905E-1,4.6280998E-1,-1.229167E-1,-8.8992614E-1,9.959321E-1,3.5997376E-1,-1.891753E-1,-1.5685877E-2,-1.6984621E-2,1.1160978E0,7.297249E-1,1.98025E-1,-3.991909E-1,8.2134634E-1,4.6311896E-2,4.5478395E-1,9.584489E-1,4.1017976E-1,7.652788E-2,-4.223652E-1,6.1768544E-1,-9.888963E-2,-2.2013311E-1,1.10839516E-1,2.3420334E-1,6.9413984E-1,8.419456E-2,-3.7106672E-1],"categories":[],"categories_nodes":[],"categories_segments":[],"categories_sizes":[],"default_left":[1,1,1,1,1,1,1,1,1,1,1,1,1,1,1,1,1,1,1,1,1,1,1,1,1,1,1,1,